{"learner":{"attributes":{"scikit_learn":"{\"_estimator_type\": \"regressor\"}"},"feature_names":[],"feature_types":[],"gradient_booster":{"model":{"cats":{"enc":[],"feature_segments":[],"sorted_idx":[]},"gbtree_model_param":{"num_parallel_tree":"1","num_trees":"50"},"iteration_indptr":[0,1,2,3,4,5,6,7,8,9,10,11,12,13,14,15,16,17,18,19,20,21,22,23,24,25,26,27,28,29,30,31,32,33,34,35,36,37,38,39,40,41,42,43,44,45,46,47,48,49,50],"tree_info":[0,0,0,0,0,0,0,0,0,0,0,0,0,0,0,0,0,0,0,0,0,0,0,0,0,0,0,0,0,0,0,0,0,0,0,0,0,0,0,0,0,0,0,0,0,0,0,0,0,0],"trees":[{"base_weights":[7.116972E-7,-5.2856073E0,1.5585774E0,-6.58787E0,-2.6765783E0,-4.840288E0,2.3759947E0,-4.141163E-1,-7.786429E-1,-3.7487727E-1,6.464428E-2,1.9615784E-1,-5.355785E-1,3.1413517E-3,5.462503E-1],"categories":[],"categories_nodes":[],"categories_segments":[],"categories_sizes":[],"default_left":[0,0,0,0,0,0,0,0,0,0,0,0,0,0,0],"id":0,"left_children":[1,3,5,7,9,11,13,-1,-1,-1,-1,-1,-1,-1,-1],"loss_changes":[1.664081E3,1.3865869E2,8.274653E2,5.5730713E1,6.2993095E1,7.36199E1,1.0057116E3,0E0,0E0,0E0,0E0,0E0,0E0,0E0,0E0],"parents":[2147483647,0,0,1,1,2,2,3,3,4,4,5,5,6,6],"right_children":[2,4,6,8,10,12,14,-1,-1,-1,-1,-1,-1,-1,-1],"split_conditions":[1E0,1E0,7.996454E1,3.2714203E-1,1.7E1,1.3326693E0,1E0,-4.141163E-1,-7.786429E-1,-3.7487727E-1,6.464428E-2,1.9615784E-1,-5.355785E-1,3.1413517E-3,5.462503E-1],"split_indices":[6,25,9,12,27,4,25,0,0,0,0,0,0,0,0],"split_type":[0,0,0,0,0,0,0,0,0,0,0,0,0,0,0],"sum_hessian":[2E2,4.5E1,1.55E2,2.9E1,1.6E1,1.7E1,1.38E2,1.1E1,1.8E1,1.2E1,4E0,1E0,1.6E1,7.9E1,5.9E1],"tree_param":{"num_deleted":"0","num_feature":"28","num_nodes":"15","size_leaf_vector":"1"}},{"base_weights":[-6.432092E-3,-4.78972E0,1.4040658E0,-5.968842E0,-2.4271688E0,-4.375117E0,2.142348E0,-4.054664E-1,-7.3903316E-1,-1.1388574E-1,-5.2913445E-1,-5.7352704E-1,-1.4184086E-1,5.6128097E-1,1.2958519E-2],"categories":[],"categories_nodes":[],"categories_segments":[],"categories_sizes":[],"default_left":[0,0,0,0,0,0,0,0,0,0,0,0,0,0,0],"id":1,"left_children":[1,3,5,7,9,11,13,-1,-1,-1,-1,-1,-1,-1,-1],"loss_changes":[1.3628356E3,1.13656494E2,6.7497314E2,5.1664185E1,5.670308E1,6.425342E1,9.702178E2,0E0,0E0,0E0,0E0,0E0,0E0,0E0,0E0],"parents":[2147483647,0,0,1,1,2,2,3,3,4,4,5,5,6,6],"right_children":[2,4,6,8,10,12,14,-1,-1,-1,-1,-1,-1,-1,-1],"split_conditions":[1E0,1E0,7.996454E1,3E0,7.1817145E0,1.9E1,2.0598354E2,-4.054664E-1,-7.3903316E-1,-1.1388574E-1,-5.2913445E-1,-5.7352704E-1,-1.4184086E-1,5.6128097E-1,1.2958519E-2],"split_indices":[6,25,9,24,10,27,9,0,0,0,0,0,0,0,0],"split_type":[0,0,0,0,0,0,0,0,0,0,0,0,0,0,0],"sum_hessian":[2E2,4.5E1,1.55E2,2.9E1,1.6E1,1.7E1,1.38E2,1.4E1,1.5E1,1.2E1,4E0,1.1E1,6E0,5E1,8.8E1],"tree_param":{"num_deleted":"0","num_feature":"28","num_nodes":"15","size_leaf_vector":"1"}},{"base_weights":[-1.5384309E-2,-4.3496075E0,1.2627544E0,-2.3822615E0,-5.6458044E0,-5.8655727E-1,3.4849806E0,-3.088181E-1,1.21346235E-1,-6.066584E-1,-2.5737254E-2,-2.3569088E-1,1.3242137E-1,-2.726558E-1,4.794557E-1],"categories":[],"categories_nodes":[],"categories_segments":[],"categories_sizes":[],"default_left":[0,0,0,0,0,0,0,0,0,0,0,0,0,0,0],"id":2,"left_children":[1,3,5,7,9,11,13,-1,-1,-1,-1,-1,-1,-1,-1],"loss_changes":[1.11898E3,1.0385333E2,6.4314E2,5.451322E1,5.965686E1,2.940364E2,5.906212E2,0E0,0E0,0E0,0E0,0E0,0E0,0E0,0E0],"parents":[2147483647,0,0,1,1,2,2,3,3,4,4,5,5,6,6],"right_children":[2,4,6,8,10,12,14,-1,-1,-1,-1,-1,-1,-1,-1],"split_conditions":[1E0,3.2714203E-1,1E0,1.0634487E-1,4.8835552E-1,1.6E1,9.802413E1,-3.088181E-1,1.21346235E-1,-6.066584E-1,-2.5737254E-2,-2.3569088E-1,1.3242137E-1,-2.726558E-1,4.794557E-1],"split_indices":[6,12,25,15,12,27,9,0,0,0,0,0,0,0,0],"split_type":[0,0,0,0,0,0,0,0,0,0,0,0,0,0,0],"sum_hessian":[2E2,4.5E1,1.55E2,1.9E1,2.6E1,8.5E1,7E1,1.6E1,3E0,2.4E1,2E0,4.4E1,4.1E1,1.2E1,5.8E1],"tree_param":{"num_deleted":"0","num_feature":"28","num_nodes":"15","size_leaf_vector":"1"}},{"base_weights":[-1.7409675E-2,-3.9324694E0,1.1371427E0,-4.947218E0,-1.9104147E0,-5.2910227E-1,3.139395E0,-3.2975397E-1,-6.1845905E-1,-2.8239495E-1,8.468586E-2,1.544681E-1,-1.9825748E-1,-2.4748762E-1,4.323228E-1],"categories":[],"categories_nodes":[],"categories_segments":[],"categories_sizes":[],"default_left":[0,0,0,0,0,0,0,0,0,0,0,0,0,0,0],"id":3,"left_children":[1,3,5,7,9,11,13,-1,-1,-1,-1,-1,-1,-1,-1],"loss_changes":[9.1302014E2,8.493512E1,5.22115E2,4.0843994E1,4.5212193E1,2.622825E2,4.8259076E2,0E0,0E0,0E0,0E0,0E0,0E0,0E0,0E0],"parents":[2147483647,0,0,1,1,2,2,3,3,4,4,5,5,6,6],"right_children":[2,4,6,8,10,12,14,-1,-1,-1,-1,-1,-1,-1,-1],"split_conditions":[1E0,1E0,1E0,3E0,1.7E1,1.955914E2,9.802413E1,-3.2975397E-1,-6.1845905E-1,-2.8239495E-1,8.468586E-2,1.544681E-1,-1.9825748E-1,-2.4748762E-1,4.323228E-1],"split_indices":[6,25,25,24,27,9,9,0,0,0,0,0,0,0,0],"split_type":[0,0,0,0,0,0,0,0,0,0,0,0,0,0,0],"sum_hessian":[2E2,4.5E1,1.55E2,2.9E1,1.6E1,8.5E1,7E1,1.4E1,1.5E1,1.2E1,4E0,3.5E1,5E1,1.2E1,5.8E1],"tree_param":{"num_deleted":"0","num_feature":"28","num_nodes":"15","size_leaf_vector":"1"}},{"base_weights":[-2.0668348E-2,-3.564134E0,1.0243322E0,-1.889196E0,-4.6728234E0,-3.181814E0,1.7021905E0,-2.5177175E-1,1.2543188E-1,-5.0404155E-1,-5.195109E-3,-1.535479E-1,-5.003868E-1,5.1003283E-1,-1.1145744E-2],"categories":[],"categories_nodes":[],"categories_segments":[],"categories_sizes":[],"default_left":[0,0,0,0,0,0,0,0,0,0,0,0,0,0,0],"id":4,"left_children":[1,3,5,7,9,11,13,-1,-1,-1,-1,-1,-1,-1,-1],"loss_changes":[7.479384E2,7.6593445E1,4.5019876E2,4.2673332E1,4.560022E1,5.8310318E1,8.325769E2,0E0,0E0,0E0,0E0,0E0,0E0,0E0,0E0],"parents":[2147483647,0,0,1,1,2,2,3,3,4,4,5,5,6,6],"right_children":[2,4,6,8,10,12,14,-1,-1,-1,-1,-1,-1,-1,-1],"split_conditions":[1E0,3.2714203E-1,1.0564036E2,1.0634487E-1,4.8835552E-1,2.6181397E-1,2.0598354E2,-2.5177175E-1,1.2543188E-1,-5.0404155E-1,-5.195109E-3,-1.535479E-1,-5.003868E-1,5.1003283E-1,-1.1145744E-2],"split_indices":[6,12,9,15,12,2,9,0,0,0,0,0,0,0,0],"split_type":[0,0,0,0,0,0,0,0,0,0,0,0,0,0,0],"sum_hessian":[2E2,4.5E1,1.55E2,1.9E1,2.6E1,2.1E1,1.34E2,1.6E1,3E0,2.4E1,2E0,1.2E1,9E0,4.6E1,8.8E1],"tree_param":{"num_deleted":"0","num_feature":"28","num_nodes":"15","size_leaf_vector":"1"}},{"base_weights":[-2.2534542E-2,-3.221537E0,9.2090553E-1,-1.906675E0,-4.4535003E0,-5.881828E-1,2.7358449E0,-2.6827186E-1,3.6124777E-2,-2.9463443E-1,-6.118168E-1,-2.1037714E-1,1.0496664E-1,-2.25088E-1,3.6875924E-1],"categories":[],"categories_nodes":[],"categories_segments":[],"categories_sizes":[],"default_left":[0,0,0,0,0,0,0,0,0,0,0,0,0,0,0],"id":5,"left_children":[1,3,5,7,9,11,13,-1,-1,-1,-1,-1,-1,-1,-1],"loss_changes":[6.095982E2,6.602231E1,4.2887817E2,4.3209282E1,3.9678802E1,2.1568655E2,3.4527368E2,0E0,0E0,0E0,0E0,0E0,0E0,0E0,0E0],"parents":[2147483647,0,0,1,1,2,2,3,3,4,4,5,5,6,6],"right_children":[2,4,6,8,10,12,14,-1,-1,-1,-1,-1,-1,-1,-1],"split_conditions":[1E0,3E0,1E0,3E0,5.725563E-2,1.6E1,7.996454E1,-2.6827186E-1,3.6124777E-2,-2.9463443E-1,-6.118168E-1,-2.1037714E-1,1.0496664E-1,-2.25088E-1,3.6875924E-1],"split_indices":[6,24,25,21,14,27,9,0,0,0,0,0,0,0,0],"split_type":[0,0,0,0,0,0,0,0,0,0,0,0,0,0,0],"sum_hessian":[2E2,4.5E1,1.55E2,2.3E1,2.2E1,8.5E1,7E1,1.7E1,6E0,1.3E1,9E0,4.4E1,4.1E1,1.1E1,5.9E1],"tree_param":{"num_deleted":"0","num_feature":"28","num_nodes":"15","size_leaf_vector":"1"}},{"base_weights":[-2.5755579E-2,-2.9241357E0,8.2906E-1,-3.7752821E0,-1.2501042E0,-5.3059065E-1,2.464284E0,-5.033785E-1,-2.3594809E-1,-2.6178567E-2,-3.5697117E-1,-1.8980697E-1,9.471986E-2,7.510727E-2,5.068463E-1],"categories":[],"categories_nodes":[],"categories_segments":[],"categories_sizes":[],"default_left":[0,0,0,0,0,0,0,0,0,0,0,0,0,0,0],"id":6,"left_children":[1,3,5,7,9,11,13,-1,-1,-1,-1,-1,-1,-1,-1],"loss_changes":[5.0041797E2,6.0823395E1,3.4814752E2,4.15766E1,3.8038193E1,1.7559058E2,3.1296033E2,0E0,0E0,0E0,0E0,0E0,0E0,0E0,0E0],"parents":[2147483647,0,0,1,1,2,2,3,3,4,4,5,5,6,6],"right_children":[2,4,6,8,10,12,14,-1,-1,-1,-1,-1,-1,-1,-1],"split_conditions":[1E0,1E0,1E0,1E0,7.1817145E0,1.6E1,1E0,-5.033785E-1,-2.3594809E-1,-2.6178567E-2,-3.5697117E-1,-1.8980697E-1,9.471986E-2,7.510727E-2,5.068463E-1],"split_indices":[6,25,25,22,10,27,22,0,0,0,0,0,0,0,0],"split_type":[0,0,0,0,0,0,0,0,0,0,0,0,0,0,0],"sum_hessian":[2E2,4.5E1,1.55E2,2.9E1,1.6E1,8.5E1,7E1,1.4E1,1.5E1,1.2E1,4E0,4.4E1,4.1E1,4.3E1,2.7E1],"tree_param":{"num_deleted":"0","num_feature":"28","num_nodes":"15","size_leaf_vector":"1"}},{"base_weights":[-2.6341828E-2,-3.5383754E0,5.6253284E-1,-4.6229506E0,-1.3433479E0,3.3895648E0,-8.92749E-1,-5.1922894E-1,1.4428456E-2,2.1303864E-1,-1.90376E-1,-3.982291E-2,4.3651342E-1,-2.2800004E-1,7.730922E-2],"categories":[],"categories_nodes":[],"categories_segments":[],"categories_sizes":[],"default_left":[0,0,0,0,0,0,0,0,0,0,0,0,0,0,0],"id":7,"left_children":[1,3,5,7,9,11,13,-1,-1,-1,-1,-1,-1,-1,-1],"loss_changes":[4.1768814E2,6.2829254E1,7.147702E2,5.231839E1,2.546969E1,2.1975842E2,2.6752084E2,0E0,0E0,0E0,0E0,0E0,0E0,0E0,0E0],"parents":[2147483647,0,0,1,1,2,2,3,3,4,4,5,5,6,6],"right_children":[2,4,6,8,10,12,14,-1,-1,-1,-1,-1,-1,-1,-1],"split_conditions":[1.0564036E2,1.9E1,2.0598354E2,4.2666772E-1,1.3326693E0,1E0,1E0,-5.1922894E-1,1.4428456E-2,2.1303864E-1,-1.90376E-1,-3.982291E-2,4.3651342E-1,-2.2800004E-1,7.730922E-2],"split_indices":[9,27,9,0,4,6,22,0,0,0,0,0,0,0,0],"split_type":[0,0,0,0,0,0,0,0,0,0,0,0,0,0,0],"sum_hessian":[2E2,2.8E1,1.72E2,1.8E1,1E1,5.8E1,1.14E2,1.6E1,2E0,1E0,9E0,1.2E1,4.6E1,6.2E1,5.2E1],"tree_param":{"num_deleted":"0","num_feature":"28","num_nodes":"15","size_leaf_vector":"1"}},{"base_weights":[-2.4882175E-2,-1.2398357E0,1.5813769E0,-2.783782E0,-5.1394057E-2,3.159749E0,-2.665468E-1,-1.21054105E-1,-4.0791154E-1,-3.6332628E-1,5.7790566E-2,5.1478304E-2,4.2662564E-1,2.1146332E-1,-1.21013395E-1],"categories":[],"categories_nodes":[],"categories_segments":[],"categories_sizes":[],"default_left":[0,0,0,0,0,0,0,0,0,0,0,0,0,0,0],"id":8,"left_children":[1,3,5,7,9,11,13,-1,-1,-1,-1,-1,-1,-1,-1],"loss_changes":[3.942182E2,2.1086925E2,2.545961E2,9.695563E1,1.5086824E2,1.3535748E2,9.467987E1,0E0,0E0,0E0,0E0,0E0,0E0,0E0,0E0],"parents":[2147483647,0,0,1,1,2,2,3,3,4,4,5,5,6,6],"right_children":[2,4,6,8,10,12,14,-1,-1,-1,-1,-1,-1,-1,-1],"split_conditions":[1E0,1E0,3E0,3E0,9.036676E1,1.2E1,2.2505631E0,-1.21054105E-1,-4.0791154E-1,-3.6332628E-1,5.7790566E-2,5.1478304E-2,4.2662564E-1,2.1146332E-1,-1.21013395E-1],"split_indices":[25,22,24,24,9,27,5,0,0,0,0,0,0,0,0],"split_type":[0,0,0,0,0,0,0,0,0,0,0,0,0,0,0],"sum_hessian":[2E2,1.14E2,8.6E1,4.9E1,6.5E1,4.6E1,4E1,2.3E1,2.6E1,9E0,5.6E1,1.4E1,3.2E1,1.1E1,2.9E1],"tree_param":{"num_deleted":"0","num_feature":"28","num_nodes":"15","size_leaf_vector":"1"}},{"base_weights":[-2.3717202E-2,-2.4505308E0,6.920337E-1,-1.4204344E0,-3.4188695E0,1.9367216E0,-6.780521E-1,-2.6749048E-1,-3.3331934E-2,-2.2394566E-1,-4.7281605E-1,4.185815E-1,3.366015E-2,-2.185465E-1,6.955706E-2],"categories":[],"categories_nodes":[],"categories_segments":[],"categories_sizes":[],"default_left":[0,0,0,0,0,0,0,0,0,0,0,0,0,0,0],"id":9,"left_children":[1,3,5,7,9,11,13,-1,-1,-1,-1,-1,-1,-1,-1],"loss_changes":[3.508317E2,4.1027924E1,2.6734454E2,3.1838497E1,2.4927948E1,2.9369424E2,1.5681638E2,0E0,0E0,0E0,0E0,0E0,0E0,0E0,0E0],"parents":[2147483647,0,0,1,1,2,2,3,3,4,4,5,5,6,6],"right_children":[2,4,6,8,10,12,14,-1,-1,-1,-1,-1,-1,-1,-1],"split_conditions":[1E0,3E0,3E0,2E0,5.725563E-2,2.0598354E2,5.9186983E-1,-2.6749048E-1,-3.3331934E-2,-2.2394566E-1,-4.7281605E-1,4.185815E-1,3.366015E-2,-2.185465E-1,6.955706E-2],"split_indices":[6,24,24,24,14,9,8,0,0,0,0,0,0,0,0],"split_type":[0,0,0,0,0,0,0,0,0,0,0,0,0,0,0],"sum_hessian":[2E2,4.5E1,1.55E2,2.3E1,2.2E1,8.1E1,7.4E1,1E1,1.3E1,1.3E1,9E0,3.3E1,4.8E1,3.5E1,3.9E1],"tree_param":{"num_deleted":"0","num_feature":"28","num_nodes":"15","size_leaf_vector":"1"}},{"base_weights":[-2.4800025E-2,-1.0994016E0,1.3959354E0,-2.4365816E0,-6.972885E-2,2.7095501E0,-1.4396283E-1,-3.2109898E-1,-2.1589002E-2,-3.2231912E-1,4.8473347E-2,9.964551E-2,4.3097472E-1,1.9502455E-1,-9.768474E-2],"categories":[],"categories_nodes":[],"categories_segments":[],"categories_sizes":[],"default_left":[0,0,0,0,0,0,0,0,0,0,0,0,0,0,0],"id":10,"left_children":[1,3,5,7,9,11,13,-1,-1,-1,-1,-1,-1,-1,-1],"loss_changes":[3.0840634E2,1.5816873E2,1.7637654E2,8.529285E1,1.169618E2,1.2454611E2,7.341868E1,0E0,0E0,0E0,0E0,0E0,0E0,0E0,0E0],"parents":[2147483647,0,0,1,1,2,2,3,3,4,4,5,5,6,6],"right_children":[2,4,6,8,10,12,14,-1,-1,-1,-1,-1,-1,-1,-1],"split_conditions":[1E0,1E0,3E0,1.9E1,9.036676E1,2.2312912E-1,2.2505631E0,-3.2109898E-1,-2.1589002E-2,-3.2231912E-1,4.8473347E-2,9.964551E-2,4.3097472E-1,1.9502455E-1,-9.768474E-2],"split_indices":[25,22,24,27,9,2,5,0,0,0,0,0,0,0,0],"split_type":[0,0,0,0,0,0,0,0,0,0,0,0,0,0,0],"sum_hessian":[2E2,1.14E2,8.6E1,4.9E1,6.5E1,4.6E1,4E1,3.6E1,1.3E1,9E0,5.6E1,2.3E1,2.3E1,1.1E1,2.9E1],"tree_param":{"num_deleted":"0","num_feature":"28","num_nodes":"15","size_leaf_vector":"1"}},{"base_weights":[-2.2263294E-2,-2.884594E0,4.5767808E-1,-3.28058E0,4.1046333E-2,2.7705312E0,-7.328959E-1,-4.867792E-1,-1.9843356E-1,9.334877E-2,4.3996835E-1,-1.7684714E-1,5.1189937E-2],"categories":[],"categories_nodes":[],"categories_segments":[],"categories_sizes":[],"default_left":[0,0,0,0,0,0,0,0,0,0,0,0,0],"id":11,"left_children":[1,3,5,7,-1,9,11,-1,-1,-1,-1,-1,-1],"loss_changes":[2.7744412E2,3.918567E1,4.7840723E2,4.3833435E1,0E0,1.7246957E2,1.4914941E2,0E0,0E0,0E0,0E0,0E0,0E0],"parents":[2147483647,0,0,1,1,2,2,3,3,5,5,6,6],"right_children":[2,4,6,8,-1,10,12,-1,-1,-1,-1,-1,-1],"split_conditions":[1.0564036E2,4.2666772E-1,2.0598354E2,1.4E1,4.1046333E-2,1E0,1E0,-4.867792E-1,-1.9843356E-1,9.334877E-2,4.3996835E-1,-1.7684714E-1,5.1189937E-2],"split_indices":[9,0,9,27,0,23,22,0,0,0,0,0,0],"split_type":[0,0,0,0,0,0,0,0,0,0,0,0,0],"sum_hessian":[2E2,2.8E1,1.72E2,2.5E1,3E0,5.8E1,1.14E2,1E1,1.5E1,2.8E1,3E1,6.2E1,5.2E1],"tree_param":{"num_deleted":"0","num_feature":"28","num_nodes":"13","size_leaf_vector":"1"}},{"base_weights":[-2.1213464E-2,-2.1406496E0,6.038844E-1,-2.3161514E0,1.1469282E0,-2.219344E0,1.0594928E0,8.8514775E-2,-2.4896692E-1,2.4632169E-2,1.4740705E-1,1.6506568E-1,-2.4822323E-1,3.2404804E-1,-1.0416904E-2],"categories":[],"categories_nodes":[],"categories_segments":[],"categories_sizes":[],"default_left":[0,0,0,0,0,0,0,0,0,0,0,0,0,0,0],"id":12,"left_children":[1,3,5,7,9,11,13,-1,-1,-1,-1,-1,-1,-1,-1],"loss_changes":[2.6758856E2,2.9197372E1,2.0301208E2,2.6644958E1,5.2078414E-1,2.6479652E1,3.429584E2,0E0,0E0,0E0,0E0,0E0,0E0,0E0,0E0],"parents":[2147483647,0,0,1,1,2,2,3,3,4,4,5,5,6,6],"right_children":[2,4,6,8,10,12,14,-1,-1,-1,-1,-1,-1,-1,-1],"split_conditions":[1E0,1.3798411E-1,1.0564036E2,1.0937077E1,1.2483862E-1,1.3326693E0,2.0598354E2,8.8514775E-2,-2.4896692E-1,2.4632169E-2,1.4740705E-1,1.6506568E-1,-2.4822323E-1,3.2404804E-1,-1.0416904E-2],"split_indices":[6,15,9,3,0,4,9,0,0,0,0,0,0,0,0],"split_type":[0,0,0,0,0,0,0,0,0,0,0,0,0,0,0],"sum_hessian":[2E2,4.5E1,1.55E2,4.3E1,2E0,2.1E1,1.34E2,2E0,4.1E1,1E0,1E0,1E0,2E1,4.6E1,8.8E1],"tree_param":{"num_deleted":"0","num_feature":"28","num_nodes":"15","size_leaf_vector":"1"}},{"base_weights":[-1.78884E-2,-9.751137E-1,1.247615E0,-1.7992836E0,2.1277523E-1,-1.9615872E-1,2.4247677E0,-3.0508205E-1,-9.518842E-2,-2.7818567E-1,7.0681445E-2,2.255634E-1,-8.795955E-2,3.7153E-1,7.307162E-2],"categories":[],"categories_nodes":[],"categories_segments":[],"categories_sizes":[],"default_left":[0,0,0,0,0,0,0,0,0,0,0,0,0,0,0],"id":13,"left_children":[1,3,5,7,9,11,13,-1,-1,-1,-1,-1,-1,-1,-1],"loss_changes":[2.447023E2,1.129704E2,1.4833582E2,6.921347E1,7.29806E1,6.9009865E1,1.0222409E2,0E0,0E0,0E0,0E0,0E0,0E0,0E0,0E0],"parents":[2147483647,0,0,1,1,2,2,3,3,4,4,5,5,6,6],"right_children":[2,4,6,8,10,12,14,-1,-1,-1,-1,-1,-1,-1,-1],"split_conditions":[1E0,1.7E1,1E0,1E0,3.718503E-1,5.6286377E1,4.9757333E0,-3.0508205E-1,-9.518842E-2,-2.7818567E-1,7.0681445E-2,2.255634E-1,-8.795955E-2,3.7153E-1,7.307162E-2],"split_indices":[25,27,23,22,8,18,5,0,0,0,0,0,0,0,0],"split_type":[0,0,0,0,0,0,0,0,0,0,0,0,0,0,0],"sum_hessian":[2E2,1.14E2,8.6E1,6.7E1,4.7E1,3.9E1,4.7E1,2.6E1,4.1E1,6E0,4.1E1,8E0,3.1E1,2.6E1,2.1E1],"tree_param":{"num_deleted":"0","num_feature":"28","num_nodes":"15","size_leaf_vector":"1"}},{"base_weights":[-1.6226826E-2,-1.872967E0,5.313775E-1,-2.0693114E0,7.0597696E-1,-2.36126E0,9.021408E-1,-3.5455427E-1,-1.5742636E-1,-2.4860477E-2,1.1070391E-1,-5.6648284E-2,-3.211442E-1,2.5762734E-1,-6.733004E-3],"categories":[],"categories_nodes":[],"categories_segments":[],"categories_sizes":[],"default_left":[0,0,0,0,0,0,0,0,0,0,0,0,0,0,0],"id":14,"left_children":[1,3,5,7,9,11,13,-1,-1,-1,-1,-1,-1,-1,-1],"loss_changes":[2.0536378E2,2.4753494E1,1.6943767E2,2.5843002E1,1.8066016E0,2.5646736E1,2.2577362E2,0E0,0E0,0E0,0E0,0E0,0E0,0E0,0E0],"parents":[2147483647,0,0,1,1,2,2,3,3,4,4,5,5,6,6],"right_children":[2,4,6,8,10,12,14,-1,-1,-1,-1,-1,-1,-1,-1],"split_conditions":[1E0,3.5851688E0,7.996454E1,2.2659218E0,1.3749088E-1,2.3063187E-2,2.0598354E2,-3.5455427E-1,-1.5742636E-1,-2.4860477E-2,1.1070391E-1,-5.6648284E-2,-3.211442E-1,2.5762734E-1,-6.733004E-3],"split_indices":[6,4,9,5,0,15,9,0,0,0,0,0,0,0,0],"split_type":[0,0,0,0,0,0,0,0,0,0,0,0,0,0,0],"sum_hessian":[2E2,4.5E1,1.55E2,4.2E1,3E0,1.7E1,1.38E2,9E0,3.3E1,1E0,2E0,6E0,1.1E1,5E1,8.8E1],"tree_param":{"num_deleted":"0","num_feature":"28","num_nodes":"15","size_leaf_vector":"1"}},{"base_weights":[-1.7355554E-2,-8.834048E-1,1.1276217E0,-1.606315E0,1.591223E-1,1.3121589E-1,2.604247E0,-2.6810494E-1,-8.771689E-2,5.7379942E-2,-2.839251E-1,7.872387E-1,-1.6904484E-2,-9.988495E-2,3.5406944E-1],"categories":[],"categories_nodes":[],"categories_segments":[],"categories_sizes":[],"default_left":[0,0,0,0,0,0,0,0,0,0,0,0,0,0,0],"id":15,"left_children":[1,3,5,7,9,11,13,-1,-1,-1,-1,-1,-1,-1,-1],"loss_changes":[2.0030908E2,8.692577E1,1.2766295E2,5.0935654E1,6.1310287E1,1.2452238E2,1.2163048E2,0E0,0E0,0E0,0E0,0E0,0E0,0E0,0E0],"parents":[2147483647,0,0,1,1,2,2,3,3,4,4,5,5,6,6],"right_children":[2,4,6,8,10,12,14,-1,-1,-1,-1,-1,-1,-1,-1],"split_conditions":[1E0,1.7E1,1E0,1E0,4.821312E-1,1.0830413E0,1E0,-2.6810494E-1,-8.771689E-2,5.7379942E-2,-2.839251E-1,7.872387E-1,-1.6904484E-2,-9.988495E-2,3.5406944E-1],"split_indices":[25,27,22,22,12,5,6,0,0,0,0,0,0,0,0],"split_type":[0,0,0,0,0,0,0,0,0,0,0,0,0,0,0],"sum_hessian":[2E2,1.14E2,8.6E1,6.7E1,4.7E1,5.2E1,3.4E1,2.6E1,4.1E1,4.2E1,5E0,1E0,5.1E1,7E0,2.7E1],"tree_param":{"num_deleted":"0","num_feature":"28","num_nodes":"15","size_leaf_vector":"1"}},{"base_weights":[-1.3420238E-2,8.7748003E-1,-9.7765845E-1,-8.971581E-2,2.0729496E0,-1.8387159E0,-2.2518178E-2,1.381671E-1,-1.1381431E-1,2.5051534E-3,3.032119E-1,-2.534788E-1,-2.974669E-2,-8.309862E-2,1.3261795E-1],"categories":[],"categories_nodes":[],"categories_segments":[],"categories_sizes":[],"default_left":[0,0,0,0,0,0,0,0,0,0,0,0,0,0,0],"id":16,"left_children":[1,3,5,7,9,11,13,-1,-1,-1,-1,-1,-1,-1,-1],"loss_changes":[1.7352493E2,1.21592575E2,7.973436E1,9.258841E1,9.224524E1,5.395984E1,5.234985E1,0E0,0E0,0E0,0E0,0E0,0E0,0E0,0E0],"parents":[2147483647,0,0,1,1,2,2,3,3,4,4,5,5,6,6],"right_children":[2,4,6,8,10,12,14,-1,-1,-1,-1,-1,-1,-1,-1],"split_conditions":[3E0,1E0,1E0,2.0290393E2,6.457303E-2,1.9E1,1.7E1,1.381671E-1,-1.1381431E-1,2.5051534E-3,3.032119E-1,-2.534788E-1,-2.974669E-2,-8.309862E-2,1.3261795E-1],"split_indices":[24,25,22,9,1,27,27,0,0,0,0,0,0,0,0],"split_type":[0,0,0,0,0,0,0,0,0,0,0,0,0,0,0],"sum_hessian":[2E2,1.04E2,9.6E1,5.8E1,4.6E1,5E1,4.6E1,2.4E1,3.4E1,1.5E1,3.1E1,3.4E1,1.6E1,2.9E1,1.7E1],"tree_param":{"num_deleted":"0","num_feature":"28","num_nodes":"15","size_leaf_vector":"1"}},{"base_weights":[-1.159854E-2,-2.2101197E0,3.5700676E-1,-2.8703763E0,-8.687567E-1,1.9749205E0,-4.7615778E-1,-4.0377948E-1,-1.4159206E-1,-1.9823597E-1,3.8963906E-2,5.1641222E-2,3.2756245E-1,-2.3443525E-1,-3.3855226E-3],"categories":[],"categories_nodes":[],"categories_segments":[],"categories_sizes":[],"default_left":[0,0,0,0,0,0,0,0,0,0,0,0,0,0,0],"id":17,"left_children":[1,3,5,7,9,11,13,-1,-1,-1,-1,-1,-1,-1,-1],"loss_changes":[1.6367673E2,2.3190018E1,2.3414238E2,2.6544006E1,1.6187292E1,1.1023659E2,9.494597E1,0E0,0E0,0E0,0E0,0E0,0E0,0E0,0E0],"parents":[2147483647,0,0,1,1,2,2,3,3,4,4,5,5,6,6],"right_children":[2,4,6,8,10,12,14,-1,-1,-1,-1,-1,-1,-1,-1],"split_conditions":[1.0564036E2,2E0,2.0598354E2,3E0,7.394726E1,1E0,1.1E1,-4.0377948E-1,-1.4159206E-1,-1.9823597E-1,3.8963906E-2,5.1641222E-2,3.2756245E-1,-2.3443525E-1,-3.3855226E-3],"split_indices":[9,19,9,16,9,23,27,0,0,0,0,0,0,0,0],"split_type":[0,0,0,0,0,0,0,0,0,0,0,0,0,0,0],"sum_hessian":[2E2,2.8E1,1.72E2,1.8E1,1E1,5.8E1,1.14E2,9E0,9E0,5E0,5E0,2.8E1,3E1,2.1E1,9.3E1],"tree_param":{"num_deleted":"0","num_feature":"28","num_nodes":"15","size_leaf_vector":"1"}},{"base_weights":[-1.3240876E-2,-1.5810232E0,4.4913882E-1,-1.9144745E0,-3.4599912E-1,-5.035471E-1,1.2931101E0,7.6014586E-2,-2.0941623E-1,-9.92099E-2,6.2774055E-2,-1.4743324E-1,5.6212444E-2,2.4087904E-2,2.4740663E-1],"categories":[],"categories_nodes":[],"categories_segments":[],"categories_sizes":[],"default_left":[0,0,0,0,0,0,0,0,0,0,0,0,0,0,0],"id":18,"left_children":[1,3,5,7,9,11,13,-1,-1,-1,-1,-1,-1,-1,-1],"loss_changes":[1.4641716E2,1.8281326E1,1.260813E2,1.8893356E1,7.543244E0,7.738459E1,1.0254306E2,0E0,0E0,0E0,0E0,0E0,0E0,0E0,0E0],"parents":[2147483647,0,0,1,1,2,2,3,3,4,4,5,5,6,6],"right_children":[2,4,6,8,10,12,14,-1,-1,-1,-1,-1,-1,-1,-1],"split_conditions":[1E0,3.156609E0,1E0,1.0937077E1,8.9143135E-2,1E0,1E0,7.6014586E-2,-2.0941623E-1,-9.92099E-2,6.2774055E-2,-1.4743324E-1,5.6212444E-2,2.4087904E-2,2.4740663E-1],"split_indices":[6,4,23,3,15,22,25,0,0,0,0,0,0,0,0],"split_type":[0,0,0,0,0,0,0,0,0,0,0,0,0,0,0],"sum_hessian":[2E2,4.5E1,1.55E2,3.5E1,1E1,7.3E1,8.2E1,2E0,3.3E1,6E0,4E0,3.8E1,3.5E1,4.4E1,3.8E1],"tree_param":{"num_deleted":"0","num_feature":"28","num_nodes":"15","size_leaf_vector":"1"}},{"base_weights":[-1.1865165E-2,-2.0281634E0,3.261956E-1,-2.5892031E0,-8.747165E-1,1.7686907E0,-4.1670358E-1,-4.066875E-1,-1.594364E-1,-1.8226366E-1,2.1898953E-2,2.7046767E-1,2.9101644E-2,-1.551066E-1,2.0897062E-2],"categories":[],"categories_nodes":[],"categories_segments":[],"categories_sizes":[],"default_left":[0,0,0,0,0,0,0,0,0,0,0,0,0,0,0],"id":19,"left_children":[1,3,5,7,9,11,13,-1,-1,-1,-1,-1,-1,-1,-1],"loss_changes":[1.3766948E2,1.650193E1,1.8612874E2,2.1446793E1,1.1803342E1,8.081476E1,8.1944374E1,0E0,0E0,0E0,0E0,0E0,0E0,0E0,0E0],"parents":[2147483647,0,0,1,1,2,2,3,3,4,4,5,5,6,6],"right_children":[2,4,6,8,10,12,14,-1,-1,-1,-1,-1,-1,-1,-1],"split_conditions":[1.0564036E2,2E0,2.0598354E2,2E0,7.394726E1,3E0,2E0,-4.066875E-1,-1.594364E-1,-1.8226366E-1,2.1898953E-2,2.7046767E-1,2.9101644E-2,-1.551066E-1,2.0897062E-2],"split_indices":[9,19,9,16,9,24,16,0,0,0,0,0,0,0,0],"split_type":[0,0,0,0,0,0,0,0,0,0,0,0,0,0,0],"sum_hessian":[2E2,2.8E1,1.72E2,1.8E1,1E1,5.8E1,1.14E2,6E0,1.2E1,5E0,5E0,3.5E1,2.3E1,4E1,7.4E1],"tree_param":{"num_deleted":"0","num_feature":"28","num_nodes":"15","size_leaf_vector":"1"}},{"base_weights":[-1.3470151E-2,-6.986473E-1,8.923786E-1,-1.5364896E0,-5.3332705E-2,6.5679574E-1,6.8156546E-1,-2.5474745E-1,-7.7758394E-2,3.237985E-1,-3.7619457E-2,-1.8284455E-2,1.9835584E-1],"categories":[],"categories_nodes":[],"categories_segments":[],"categories_sizes":[],"default_left":[0,0,0,0,0,0,0,0,0,0,0,0,0],"id":20,"left_children":[1,3,5,7,9,-1,11,-1,-1,-1,-1,-1,-1],"loss_changes":[1.253775E2,6.2095318E1,9.961784E1,3.6381233E1,7.135242E1,0E0,9.6026405E1,0E0,0E0,0E0,0E0,0E0,0E0],"parents":[2147483647,0,0,1,1,2,2,3,3,4,4,6,6],"right_children":[2,4,6,8,10,-1,12,-1,-1,-1,-1,-1,-1],"split_conditions":[1E0,2.208583E-1,1.3594861E0,2E0,1.212172E-2,6.5679574E-1,1E0,-2.5474745E-1,-7.7758394E-2,3.237985E-1,-3.7619457E-2,-1.8284455E-2,1.9835584E-1],"split_indices":[25,2,5,11,15,0,22,0,0,0,0,0,0],"split_type":[0,0,0,0,0,0,0,0,0,0,0,0,0],"sum_hessian":[2E2,1.14E2,8.6E1,4.9E1,6.5E1,2E0,8.4E1,2E1,2.9E1,5E0,6E1,5.1E1,3.3E1],"tree_param":{"num_deleted":"0","num_feature":"28","num_nodes":"13","size_leaf_vector":"1"}},{"base_weights":[-8.190558E-3,-1.3850635E0,3.9786294E-1,-2.3588562E0,-9.719939E-1,-4.3312755E-1,1.2132983E0,-3.0439612E-1,-5.6379796E-3,-1.11465596E-1,8.737323E-2,-2.4691245E-2,-3.816379E-1,-9.329134E-2,1.7731762E-1],"categories":[],"categories_nodes":[],"categories_segments":[],"categories_sizes":[],"default_left":[0,0,0,0,0,0,0,0,0,0,0,0,0,0,0],"id":21,"left_children":[1,3,5,7,9,11,13,-1,-1,-1,-1,-1,-1,-1,-1],"loss_changes":[1.1292698E2,1.6210434E1,1.0623409E2,2.0335083E1,9.9266205E0,4.819866E1,9.658192E1,0E0,0E0,0E0,0E0,0E0,0E0,0E0,0E0],"parents":[2147483647,0,0,1,1,2,2,3,3,4,4,5,5,6,6],"right_children":[2,4,6,8,10,12,14,-1,-1,-1,-1,-1,-1,-1,-1],"split_conditions":[1E0,4.1024297E-2,1.6E1,5E0,1.3798411E-1,9.76206E-1,1.3504904E2,-3.0439612E-1,-5.6379796E-3,-1.11465596E-1,8.737323E-2,-2.4691245E-2,-3.816379E-1,-9.329134E-2,1.7731762E-1],"split_indices":[6,15,27,24,15,17,9,0,0,0,0,0,0,0,0],"split_type":[0,0,0,0,0,0,0,0,0,0,0,0,0,0,0],"sum_hessian":[2E2,4.5E1,1.55E2,1.2E1,3.3E1,7.7E1,7.8E1,9E0,3E0,3.1E1,2E0,7.4E1,3E0,1.6E1,6.2E1],"tree_param":{"num_deleted":"0","num_feature":"28","num_nodes":"15","size_leaf_vector":"1"}},{"base_weights":[-1.0637506E-2,6.9139147E-1,-7.704561E-1,8.6568314E-1,-3.925895E-1,-1.4537703E0,-1.2594791E-2,6.011881E-1,7.0264034E-2,-2.848404E-1,-1.0441425E-1,2.8115812E-1,-5.771151E-2],"categories":[],"categories_nodes":[],"categories_segments":[],"categories_sizes":[],"default_left":[0,0,0,0,0,0,0,0,0,0,0,0,0],"id":22,"left_children":[1,3,5,7,-1,9,11,-1,-1,-1,-1,-1,-1],"loss_changes":[1.0774903E2,8.789783E1,5.0213863E1,8.1358955E1,0E0,2.6161179E1,7.6554924E1,0E0,0E0,0E0,0E0,0E0,0E0],"parents":[2147483647,0,0,1,1,2,2,3,3,5,5,6,6],"right_children":[2,4,6,8,-1,10,12,-1,-1,-1,-1,-1,-1],"split_conditions":[3E0,9.8642164E-1,6.423678E-1,1.3594861E0,-3.925895E-1,1.4079338E-1,7.539199E-1,6.011881E-1,7.0264034E-2,-2.848404E-1,-1.0441425E-1,2.8115812E-1,-5.771151E-2],"split_indices":[24,17,8,5,0,13,8,0,0,0,0,0,0],"split_type":[0,0,0,0,0,0,0,0,0,0,0,0,0],"sum_hessian":[2E2,1.04E2,9.6E1,1.01E2,3E0,5E1,4.6E1,2E0,9.9E1,1E1,4E1,7E0,3.9E1],"tree_param":{"num_deleted":"0","num_feature":"28","num_nodes":"13","size_leaf_vector":"1"}},{"base_weights":[-9.011928E-3,-1.701439E0,2.7474183E-1,-2.4773462E0,-9.1618025E-1,1.5342488E0,-3.7382913E-1,-2.6338005E-2,-3.0572116E-1,-2.1553376E-1,-4.644257E-2,4.232998E-2,2.524032E-1,-1.0420977E-1,4.2758122E-2],"categories":[],"categories_nodes":[],"categories_segments":[],"categories_sizes":[],"default_left":[0,0,0,0,0,0,0,0,0,0,0,0,0,0,0],"id":23,"left_children":[1,3,5,7,9,11,13,-1,-1,-1,-1,-1,-1,-1,-1],"loss_changes":[9.6994194E1,1.5399658E1,1.4189374E2,1.7168015E1,7.9557257E0,6.380789E1,6.2034668E1,0E0,0E0,0E0,0E0,0E0,0E0,0E0,0E0],"parents":[2147483647,0,0,1,1,2,2,3,3,4,4,5,5,6,6],"right_children":[2,4,6,8,10,12,14,-1,-1,-1,-1,-1,-1,-1,-1],"split_conditions":[1.0564036E2,1E0,2.0598354E2,4.380404E-2,7.096499E-2,1E0,1E0,-2.6338005E-2,-3.0572116E-1,-2.1553376E-1,-4.644257E-2,4.232998E-2,2.524032E-1,-1.0420977E-1,4.2758122E-2],"split_indices":[9,22,9,1,1,23,22,0,0,0,0,0,0,0,0],"split_type":[0,0,0,0,0,0,0,0,0,0,0,0,0,0,0],"sum_hessian":[2E2,2.8E1,1.72E2,1.3E1,1.5E1,5.8E1,1.14E2,3E0,1E1,3E0,1.2E1,2.8E1,3E1,6.2E1,5.2E1],"tree_param":{"num_deleted":"0","num_feature":"28","num_nodes":"15","size_leaf_vector":"1"}},{"base_weights":[-9.905692E-3,-5.97955E-1,7.675147E-1,-6.788352E-1,4.3111944E-1,5.512702E-1,5.9100795E-1,-8.2544915E-2,2.0977917E-1,-1.4748404E-2,1.7030837E-1],"categories":[],"categories_nodes":[],"categories_segments":[],"categories_sizes":[],"default_left":[0,0,0,0,0,0,0,0,0,0,0],"id":24,"left_children":[1,3,5,7,-1,-1,9,-1,-1,-1,-1],"loss_changes":[9.234841E1,4.8587692E1,6.960947E1,4.8140152E1,0E0,0E0,7.005819E1,0E0,0E0,0E0,0E0],"parents":[2147483647,0,0,1,1,2,2,3,3,6,6],"right_children":[2,4,6,8,-1,-1,10,-1,-1,-1,-1],"split_conditions":[1E0,2.4636653E-1,1.3594861E0,9.42232E-2,4.3111944E-1,5.512702E-1,1E0,-8.2544915E-2,2.0977917E-1,-1.4748404E-2,1.7030837E-1],"split_indices":[25,13,5,14,0,0,22,0,0,0,0],"split_type":[0,0,0,0,0,0,0,0,0,0,0],"sum_hessian":[2E2,1.14E2,8.6E1,1.13E2,1E0,2E0,8.4E1,1.08E2,5E0,5.1E1,3.3E1],"tree_param":{"num_deleted":"0","num_feature":"28","num_nodes":"11","size_leaf_vector":"1"}},{"base_weights":[-2.6212616E-3,-1.1994313E0,3.503011E-1,-2.4586496E0,-9.1037554E-1,-1.9685517E-1,1.2531996E0,-2.6180077E-2,-2.7350852E-1,-1.1134525E-1,3.921229E-2,-1.17259875E-1,4.142122E-2,-7.469514E-2,1.9520454E-1],"categories":[],"categories_nodes":[],"categories_segments":[],"categories_sizes":[],"default_left":[0,0,0,0,0,0,0,0,0,0,0,0,0,0,0],"id":25,"left_children":[1,3,5,7,9,11,13,-1,-1,-1,-1,-1,-1,-1,-1],"loss_changes":[8.531875E1,1.4504982E1,7.731484E1,4.14225E0,1.0752396E1,5.8917717E1,8.392812E1,0E0,0E0,0E0,0E0,0E0,0E0,0E0,0E0],"parents":[2147483647,0,0,1,1,2,2,3,3,4,4,5,5,6,6],"right_children":[2,4,6,8,10,12,14,-1,-1,-1,-1,-1,-1,-1,-1],"split_conditions":[1E0,2.2424161E-1,1.8E1,2.4774572E-2,3.2439268E0,2E0,1.2761958E2,-2.6180077E-2,-2.7350852E-1,-1.1134525E-1,3.921229E-2,-1.17259875E-1,4.142122E-2,-7.469514E-2,1.9520454E-1],"split_indices":[6,17,27,1,4,16,9,0,0,0,0,0,0,0,0],"split_type":[0,0,0,0,0,0,0,0,0,0,0,0,0,0,0],"sum_hessian":[2E2,4.5E1,1.55E2,7E0,3.8E1,9.7E1,5.8E1,1E0,6E0,3.3E1,5E0,3.7E1,6E1,1.5E1,4.3E1],"tree_param":{"num_deleted":"0","num_feature":"28","num_nodes":"15","size_leaf_vector":"1"}},{"base_weights":[-3.986762E-3,5.9281313E-1,-6.499662E-1,7.4888605E-1,-3.5352495E-1,-1.9838895E0,-3.4170887E-1,-6.850842E-2,1.175043E-1,-2.622026E-1,-6.065287E-2,-1.1039763E-1,4.4815786E-2],"categories":[],"categories_nodes":[],"categories_segments":[],"categories_sizes":[],"default_left":[0,0,0,0,0,0,0,0,0,0,0,0,0],"id":26,"left_children":[1,3,5,7,-1,9,11,-1,-1,-1,-1,-1,-1],"loss_changes":[7.7874916E1,7.0296776E1,3.920767E1,6.3136833E1,0E0,1.42306595E1,4.8661926E1,0E0,0E0,0E0,0E0,0E0,0E0],"parents":[2147483647,0,0,1,1,2,2,3,3,5,5,6,6],"right_children":[2,4,6,8,-1,10,12,-1,-1,-1,-1,-1,-1],"split_conditions":[3E0,9.8642164E-1,1E0,1E0,-3.5352495E-1,3E0,6.423678E-1,-6.850842E-2,1.175043E-1,-2.622026E-1,-6.065287E-2,-1.1039763E-1,4.4815786E-2],"split_indices":[24,17,16,6,0,21,8,0,0,0,0,0,0],"split_type":[0,0,0,0,0,0,0,0,0,0,0,0,0],"sum_hessian":[2E2,1.04E2,9.6E1,1.01E2,3E0,1.7E1,7.9E1,2.3E1,7.8E1,1.1E1,6E0,4E1,3.9E1],"tree_param":{"num_deleted":"0","num_feature":"28","num_nodes":"13","size_leaf_vector":"1"}},{"base_weights":[-7.035516E-3,-5.2416897E-1,6.7661256E-1,-5.9787714E-1,3.9392805E-1,4.9879766E-1,5.1648664E-1,-7.217227E-2,1.7516296E-1,1.9042729E-1,3.1365037E-3],"categories":[],"categories_nodes":[],"categories_segments":[],"categories_sizes":[],"default_left":[0,0,0,0,0,0,0,0,0,0,0],"id":27,"left_children":[1,3,5,7,-1,-1,9,-1,-1,-1,-1],"loss_changes":[7.141566E1,4.0189358E1,5.7485203E1,3.443544E1,0E0,0E0,5.7166092E1,0E0,0E0,0E0,0E0],"parents":[2147483647,0,0,1,1,2,2,3,3,6,6],"right_children":[2,4,6,8,-1,-1,10,-1,-1,-1,-1],"split_conditions":[1E0,2.4636653E-1,1.3594861E0,9.42232E-2,3.9392805E-1,4.9879766E-1,1.7224894E0,-7.217227E-2,1.7516296E-1,1.9042729E-1,3.1365037E-3],"split_indices":[25,13,5,14,0,0,4,0,0,0,0],"split_type":[0,0,0,0,0,0,0,0,0,0,0],"sum_hessian":[2E2,1.14E2,8.6E1,1.13E2,1E0,2E0,8.4E1,1.08E2,5E0,2.1E1,6.3E1],"tree_param":{"num_deleted":"0","num_feature":"28","num_nodes":"11","size_leaf_vector":"1"}},{"base_weights":[-4.150144E-4,-1.7433002E0,1.9111311E-1,-2.3911694E-1,-2.3708704E0,1.0758551E0,-3.3370057E-1,8.3216004E-2,-1.2506147E-1,-2.652212E-1,-4.5521293E-2,4.3678734E-2,2.0301142E-1,-1.0062796E-1,2.5747633E-2],"categories":[],"categories_nodes":[],"categories_segments":[],"categories_sizes":[],"default_left":[0,0,0,0,0,0,0,0,0,0,0,0,0,0,0],"id":28,"left_children":[1,3,5,7,9,11,13,-1,-1,-1,-1,-1,-1,-1,-1],"loss_changes":[6.742928E1,1.8312702E1,8.486612E1,8.625871E0,6.338043E0,4.058213E1,4.598461E1,0E0,0E0,0E0,0E0,0E0,0E0,0E0,0E0],"parents":[2147483647,0,0,1,1,2,2,3,3,4,4,5,5,6,6],"right_children":[2,4,6,8,10,12,14,-1,-1,-1,-1,-1,-1,-1,-1],"split_conditions":[7.996454E1,2.3063187E-2,2.0598354E2,5.4714637E0,1.2330398E-1,1E0,2.1562679E-1,8.3216004E-2,-1.2506147E-1,-2.652212E-1,-4.5521293E-2,4.3678734E-2,2.0301142E-1,-1.0062796E-1,2.5747633E-2],"split_indices":[9,15,9,5,15,25,2,0,0,0,0,0,0,0,0],"split_type":[0,0,0,0,0,0,0,0,0,0,0,0,0,0,0],"sum_hessian":[2E2,1.9E1,1.81E2,6E0,1.3E1,6.7E1,1.14E2,3E0,3E0,1.1E1,2E0,4.1E1,2.6E1,5.3E1,6.1E1],"tree_param":{"num_deleted":"0","num_feature":"28","num_nodes":"15","size_leaf_vector":"1"}},{"base_weights":[-1.2726333E-3,-4.275766E-1,7.361352E-1,-1.2014214E0,8.388057E-2,1.139196E0,-1.0726396E0,-1.4325945E-1,1.873012E-1,7.4608974E-2,-5.9745915E-2,-7.479303E-2,1.826795E-1,-1.6887939E-1,3.036531E-3],"categories":[],"categories_nodes":[],"categories_segments":[],"categories_sizes":[],"default_left":[0,0,0,0,0,0,0,0,0,0,0,0,0,0,0],"id":29,"left_children":[1,3,5,7,9,11,13,-1,-1,-1,-1,-1,-1,-1,-1],"loss_changes":[6.350109E1,5.0761696E1,5.5171375E1,3.893032E1,3.5638527E1,8.0519066E1,9.565979E0,0E0,0E0,0E0,0E0,0E0,0E0,0E0,0E0],"parents":[2147483647,0,0,1,1,2,2,3,3,4,4,5,5,6,6],"right_children":[2,4,6,8,10,12,14,-1,-1,-1,-1,-1,-1,-1,-1],"split_conditions":[1.8E1,2E0,2.2E1,4.8446026E-1,3E0,1.2761958E2,3E0,-1.4325945E-1,1.873012E-1,7.4608974E-2,-5.9745915E-2,-7.479303E-2,1.826795E-1,-1.6887939E-1,3.036531E-3],"split_indices":[27,16,27,0,24,9,16,0,0,0,0,0,0,0,0],"split_type":[0,0,0,0,0,0,0,0,0,0,0,0,0,0,0],"sum_hessian":[2E2,1.27E2,7.3E1,5E1,7.7E1,6E1,1.3E1,4.7E1,3E0,3.9E1,3.8E1,1.6E1,4.4E1,8E0,5E0],"tree_param":{"num_deleted":"0","num_feature":"28","num_nodes":"15","size_leaf_vector":"1"}},{"base_weights":[-1.1410926E-3,-5.3297067E-1,5.413365E-1,5.1863575E-1,-6.4094776E-1,-2.6270172E-1,1.2593081E0,-1.1328516E-1,-3.6263358E-4,-1.3474226E-1,2.7118428E-2,-5.798748E-2,1.8715395E-1],"categories":[],"categories_nodes":[],"categories_segments":[],"categories_sizes":[],"default_left":[0,0,0,0,0,0,0,0,0,0,0,0,0],"id":30,"left_children":[1,3,5,-1,7,9,11,-1,-1,-1,-1,-1,-1],"loss_changes":[5.8278145E1,6.631494E1,5.8058487E1,0E0,3.1659477E1,2.8163029E1,6.0763542E1,0E0,0E0,0E0,0E0,0E0,0E0],"parents":[2147483647,0,0,1,1,2,2,4,4,5,5,6,6],"right_children":[2,4,6,-1,8,10,12,-1,-1,-1,-1,-1,-1],"split_conditions":[1E0,1.0830413E0,1.5E1,5.1863575E-1,3E0,1.291762E-1,1E0,-1.1328516E-1,-3.6263358E-4,-1.3474226E-1,2.7118428E-2,-5.798748E-2,1.8715395E-1],"split_indices":[22,5,27,0,16,2,6,0,0,0,0,0,0],"split_type":[0,0,0,0,0,0,0,0,0,0,0,0,0],"sum_hessian":[2E2,1.01E2,9.9E1,1E0,1E2,4.7E1,5.2E1,5.6E1,4.4E1,1.5E1,3.2E1,1.3E1,3.9E1],"tree_param":{"num_deleted":"0","num_feature":"28","num_nodes":"13","size_leaf_vector":"1"}},{"base_weights":[1.0947991E-3,-4.5321667E-1,6.016089E-1,-5.1921964E-1,3.5355598E-1,-2.0294909E-1,1.2595403E0,-1.0491873E-1,-1.0356414E-2,-7.278257E-2,1.6858286E-1,2.2342999E-2,2.0571287E-1],"categories":[],"categories_nodes":[],"categories_segments":[],"categories_sizes":[],"default_left":[0,0,0,0,0,0,0,0,0,0,0,0,0],"id":31,"left_children":[1,3,5,7,-1,9,11,-1,-1,-1,-1,-1,-1],"loss_changes":[5.5109562E1,3.21119E1,4.6308548E1,2.5003716E1,0E0,4.0881992E1,3.920707E1,0E0,0E0,0E0,0E0,0E0,0E0],"parents":[2147483647,0,0,1,1,2,2,3,3,5,5,6,6],"right_children":[2,4,6,8,-1,10,12,-1,-1,-1,-1,-1,-1],"split_conditions":[1E0,2.4636653E-1,1E0,1E0,3.5355598E-1,4E0,2E0,-1.0491873E-1,-1.0356414E-2,-7.278257E-2,1.6858286E-1,2.2342999E-2,2.0571287E-1],"split_indices":[25,13,23,22,0,7,16,0,0,0,0,0,0],"split_type":[0,0,0,0,0,0,0,0,0,0,0,0,0],"sum_hessian":[2E2,1.14E2,8.6E1,1.13E2,1E0,3.9E1,4.7E1,4.9E1,6.4E1,3.1E1,8E0,2.1E1,2.6E1],"tree_param":{"num_deleted":"0","num_feature":"28","num_nodes":"13","size_leaf_vector":"1"}},{"base_weights":[3.7822532E-3,-1.5356166E0,1.7292617E-1,-2.3975277E-1,-2.0738616E0,9.3686914E-1,-2.8030032E-1,6.883917E-2,-1.1079591E-1,-2.8467742E-1,-1.3281576E-1,2.9004812E-1,6.639878E-2,7.0920594E-2,-5.7733815E-2],"categories":[],"categories_nodes":[],"categories_segments":[],"categories_sizes":[],"default_left":[0,0,0,0,0,0,0,0,0,0,0,0,0,0,0],"id":32,"left_children":[1,3,5,7,9,11,13,-1,-1,-1,-1,-1,-1,-1,-1],"loss_changes":[5.260192E1,1.3452633E1,6.3278137E1,6.4034557E0,4.2881355E0,3.4510777E1,3.4210346E1,0E0,0E0,0E0,0E0,0E0,0E0,0E0,0E0],"parents":[2147483647,0,0,1,1,2,2,3,3,4,4,5,5,6,6],"right_children":[2,4,6,8,10,12,14,-1,-1,-1,-1,-1,-1,-1,-1],"split_conditions":[7.996454E1,2.3063187E-2,2.0598354E2,5.4714637E0,3.5102047E1,1.9413018E0,3.442854E-2,6.883917E-2,-1.1079591E-1,-2.8467742E-1,-1.3281576E-1,2.9004812E-1,6.639878E-2,7.0920594E-2,-5.7733815E-2],"split_indices":[9,15,9,5,3,5,14,0,0,0,0,0,0,0,0],"split_type":[0,0,0,0,0,0,0,0,0,0,0,0,0,0,0],"sum_hessian":[2E2,1.9E1,1.81E2,6E0,1.3E1,6.7E1,1.14E2,3E0,3E0,5E0,8E0,7E0,6E1,2.6E1,8.8E1],"tree_param":{"num_deleted":"0","num_feature":"28","num_nodes":"15","size_leaf_vector":"1"}},{"base_weights":[2.957045E-3,-1.1471608E0,2.035418E-1,-1.732227E0,-5.9786147E-1,1.1747402E0,-2.2710036E-1,-1.1159325E-2,-2.1640733E-1,-1.2484781E-1,-1.2948166E-2,1.9577776E-1,1.4699607E-2,-1.4701809E-1,6.6803297E-4],"categories":[],"categories_nodes":[],"categories_segments":[],"categories_sizes":[],"default_left":[0,0,0,0,0,0,0,0,0,0,0,0,0,0,0],"id":33,"left_children":[1,3,5,7,9,11,13,-1,-1,-1,-1,-1,-1,-1,-1],"loss_changes":[4.6603405E1,8.605663E0,7.220389E1,9.5566025E0,5.0188513E0,4.23646E1,3.4882805E1,0E0,0E0,0E0,0E0,0E0,0E0,0E0,0E0],"parents":[2147483647,0,0,1,1,2,2,3,3,4,4,5,5,6,6],"right_children":[2,4,6,8,10,12,14,-1,-1,-1,-1,-1,-1,-1,-1],"split_conditions":[1.0770923E2,1E0,1.917666E2,4.380404E-2,1E0,3E0,7.4315704E-2,-1.1159325E-2,-2.1640733E-1,-1.2484781E-1,-1.2948166E-2,1.9577776E-1,1.4699607E-2,-1.4701809E-1,6.6803297E-4],"split_indices":[9,22,9,1,23,24,2,0,0,0,0,0,0,0,0],"split_type":[0,0,0,0,0,0,0,0,0,0,0,0,0,0,0],"sum_hessian":[2E2,2.9E1,1.71E2,1.3E1,1.6E1,5.2E1,1.19E2,3E0,1E1,6E0,1E1,2.9E1,2.3E1,1.8E1,1.01E2],"tree_param":{"num_deleted":"0","num_feature":"28","num_nodes":"15","size_leaf_vector":"1"}},{"base_weights":[1.1629085E-3,-8.6653674E-1,2.5701562E-1,-1.6680015E0,-5.6699055E-1,-3.4511128E-1,7.9075503E-1,-2.6994659E-2,-2.104026E-1,-2.1010334E-2,-1.4381984E-1,-1.022103E-1,3.9788283E-2,1.2140344E-2,1.6196407E-1],"categories":[],"categories_nodes":[],"categories_segments":[],"categories_sizes":[],"default_left":[0,0,0,0,0,0,0,0,0,0,0,0,0,0,0],"id":34,"left_children":[1,3,5,7,9,11,13,-1,-1,-1,-1,-1,-1,-1,-1],"loss_changes":[4.484537E1,1.0097748E1,5.040801E1,6.747055E0,1.0580133E1,3.7628735E1,4.5853096E1,0E0,0E0,0E0,0E0,0E0,0E0,0E0,0E0],"parents":[2147483647,0,0,1,1,2,2,3,3,4,4,5,5,6,6],"right_children":[2,4,6,8,10,12,14,-1,-1,-1,-1,-1,-1,-1,-1],"split_conditions":[1E0,1.1640525E-1,1E0,3.1198243E-2,3.880083E-1,1E0,6.797701E-1,-2.6994659E-2,-2.104026E-1,-2.1010334E-2,-1.4381984E-1,-1.022103E-1,3.9788283E-2,1.2140344E-2,1.6196407E-1],"split_indices":[6,2,23,1,0,22,8,0,0,0,0,0,0,0,0],"split_type":[0,0,0,0,0,0,0,0,0,0,0,0,0,0,0],"sum_hessian":[2E2,4.5E1,1.55E2,1.1E1,3.4E1,7.3E1,8.2E1,3E0,8E0,2.5E1,9E0,3.8E1,3.5E1,4.6E1,3.6E1],"tree_param":{"num_deleted":"0","num_feature":"28","num_nodes":"15","size_leaf_vector":"1"}},{"base_weights":[-3.9902018E-4,-4.0997228E-1,5.4099554E-1,-4.68774E-1,3.1467113E-1,4.0114236E-1,4.1214517E-1,-5.653025E-2,1.362956E-1,-1.3064789E-2,1.2301773E-1],"categories":[],"categories_nodes":[],"categories_segments":[],"categories_sizes":[],"default_left":[0,0,0,0,0,0,0,0,0,0,0],"id":35,"left_children":[1,3,5,7,-1,-1,9,-1,-1,-1,-1],"loss_changes":[4.479168E1,2.5526089E1,3.7250145E1,2.09273E1,0E0,0E0,3.7902603E1,0E0,0E0,0E0,0E0],"parents":[2147483647,0,0,1,1,2,2,3,3,6,6],"right_children":[2,4,6,8,-1,-1,10,-1,-1,-1,-1],"split_conditions":[1E0,2.4636653E-1,1.3594861E0,9.42232E-2,3.1467113E-1,4.0114236E-1,1E0,-5.653025E-2,1.362956E-1,-1.3064789E-2,1.2301773E-1],"split_indices":[25,13,5,14,0,0,22,0,0,0,0],"split_type":[0,0,0,0,0,0,0,0,0,0,0],"sum_hessian":[2E2,1.14E2,8.6E1,1.13E2,1E0,2E0,8.4E1,1.08E2,5E0,5.1E1,3.3E1],"tree_param":{"num_deleted":"0","num_feature":"28","num_nodes":"11","size_leaf_vector":"1"}},{"base_weights":[4.145935E-3,4.251408E-1,-4.516129E-1,-1.0503138E-1,1.2552884E0,-1.0709544E0,-6.854325E-2,-1.14934884E-1,6.2065072E-2,-5.270657E-2,1.7033459E-1,-3.9919637E-2,-1.5637608E-1,3.0021867E-2,-1.12444974E-1],"categories":[],"categories_nodes":[],"categories_segments":[],"categories_sizes":[],"default_left":[0,0,0,0,0,0,0,0,0,0,0,0,0,0,0],"id":36,"left_children":[1,3,5,7,9,11,13,-1,-1,-1,-1,-1,-1,-1,-1],"loss_changes":[3.8758293E1,4.6344566E1,2.2939934E1,4.9973106E1,3.364026E1,1.1624481E1,2.4089647E1,0E0,0E0,0E0,0E0,0E0,0E0,0E0,0E0],"parents":[2147483647,0,0,1,1,2,2,3,3,4,4,5,5,6,6],"right_children":[2,4,6,8,10,12,14,-1,-1,-1,-1,-1,-1,-1,-1],"split_conditions":[3E0,2E0,2E0,2E0,1.8408557E0,4.881509E-2,5.747525E0,-1.14934884E-1,6.2065072E-2,-5.270657E-2,1.7033459E-1,-3.9919637E-2,-1.5637608E-1,3.0021867E-2,-1.12444974E-1],"split_indices":[24,24,16,16,10,14,5,0,0,0,0,0,0,0,0],"split_type":[0,0,0,0,0,0,0,0,0,0,0,0,0,0,0],"sum_hessian":[2E2,1.04E2,9.6E1,6.4E1,4E1,3.6E1,6E1,2.6E1,3.8E1,8E0,3.2E1,1.6E1,2E1,4.5E1,1.5E1],"tree_param":{"num_deleted":"0","num_feature":"28","num_nodes":"15","size_leaf_vector":"1"}},{"base_weights":[2.6669763E-3,-5.218982E-1,3.6109763E-1,-8.279978E-1,6.971883E-1,-1.5148805E-1,8.936267E-1,-2.602115E-1,-6.072175E-2,-1.199941E-1,1.3732235E-1,4.214552E-1,-2.921535E-2,3.336383E-2,2.1506205E-1],"categories":[],"categories_nodes":[],"categories_segments":[],"categories_sizes":[],"default_left":[0,0,0,0,0,0,0,0,0,0,0,0,0,0,0],"id":37,"left_children":[1,3,5,7,9,11,13,-1,-1,-1,-1,-1,-1,-1,-1],"loss_changes":[3.7980522E1,3.1176546E1,3.2891388E1,2.4271496E1,2.345073E1,3.9308655E1,4.0812675E1,0E0,0E0,0E0,0E0,0E0,0E0,0E0,0E0],"parents":[2147483647,0,0,1,1,2,2,3,3,4,4,5,5,6,6],"right_children":[2,4,6,8,10,12,14,-1,-1,-1,-1,-1,-1,-1,-1],"split_conditions":[2.1562679E-1,1.668348E2,1E0,1E0,1E0,1.0830413E0,3E0,-2.602115E-1,-6.072175E-2,-1.199941E-1,1.3732235E-1,4.214552E-1,-2.921535E-2,3.336383E-2,2.1506205E-1],"split_indices":[2,18,22,24,11,5,6,0,0,0,0,0,0,0,0],"split_type":[0,0,0,0,0,0,0,0,0,0,0,0,0,0,0],"sum_hessian":[2E2,8.1E1,1.19E2,6.5E1,1.6E1,6.1E1,5.8E1,6E0,5.9E1,4E0,1.2E1,1E0,6E1,4.1E1,1.7E1],"tree_param":{"num_deleted":"0","num_feature":"28","num_nodes":"15","size_leaf_vector":"1"}},{"base_weights":[4.077446E-3,-3.125902E-1,5.517718E-1,-8.506042E-1,4.3195724E-2,9.040965E-1,-1.0227696E0,-1.0155263E-1,1.3411127E-1,2.9525686E-2,-1.0351447E-1,-5.6154143E-2,1.437691E-1,-1.4804254E-1,-1.6582426E-2],"categories":[],"categories_nodes":[],"categories_segments":[],"categories_sizes":[],"default_left":[0,0,0,0,0,0,0,0,0,0,0,0,0,0,0],"id":38,"left_children":[1,3,5,7,9,11,13,-1,-1,-1,-1,-1,-1,-1,-1],"loss_changes":[3.5033333E1,2.4538223E1,4.1976166E1,1.9796532E1,2.1506634E1,4.8512753E1,5.2451124E0,0E0,0E0,0E0,0E0,0E0,0E0,0E0,0E0],"parents":[2147483647,0,0,1,1,2,2,3,3,4,4,5,5,6,6],"right_children":[2,4,6,8,10,12,14,-1,-1,-1,-1,-1,-1,-1,-1],"split_conditions":[1.8E1,2E0,2.2E1,4.8446026E-1,6.856878E0,1.2761958E2,3E0,-1.0155263E-1,1.3411127E-1,2.9525686E-2,-1.0351447E-1,-5.6154143E-2,1.437691E-1,-1.4804254E-1,-1.6582426E-2],"split_indices":[27,16,27,0,5,9,16,0,0,0,0,0,0,0,0],"split_type":[0,0,0,0,0,0,0,0,0,0,0,0,0,0,0],"sum_hessian":[2E2,1.27E2,7.3E1,5E1,7.7E1,6E1,1.3E1,4.7E1,3E0,6.3E1,1.4E1,1.6E1,4.4E1,8E0,5E0],"tree_param":{"num_deleted":"0","num_feature":"28","num_nodes":"15","size_leaf_vector":"1"}},{"base_weights":[3.0806432E-3,-3.534111E-1,4.7427E-1,-4.0590847E-1,2.8156433E-1,1.4677801E0,1.1542376E-1,-1.4242841E-1,-2.7213601E-2,9.829528E-2,3.524972E-1,-5.2701402E-2,9.311056E-2],"categories":[],"categories_nodes":[],"categories_segments":[],"categories_sizes":[],"default_left":[0,0,0,0,0,0,0,0,0,0,0,0,0],"id":39,"left_children":[1,3,5,7,-1,9,11,-1,-1,-1,-1,-1,-1],"loss_changes":[3.393061E1,2.0275093E1,3.0847595E1,1.5142693E1,0E0,1.9474926E1,3.455232E1,0E0,0E0,0E0,0E0,0E0,0E0],"parents":[2147483647,0,0,1,1,2,2,3,3,5,5,6,6],"right_children":[2,4,6,8,-1,10,12,-1,-1,-1,-1,-1,-1],"split_conditions":[1E0,2.4636653E-1,1.7224894E0,1E0,2.8156433E-1,7.9243094E-1,2.8264973E0,-1.4242841E-1,-2.7213601E-2,9.829528E-2,3.524972E-1,-5.2701402E-2,9.311056E-2],"split_indices":[25,13,4,24,0,17,4,0,0,0,0,0,0],"split_type":[0,0,0,0,0,0,0,0,0,0,0,0,0],"sum_hessian":[2E2,1.14E2,8.6E1,1.13E2,1E0,2.2E1,6.4E1,1.2E1,1.01E2,1.9E1,3E0,3.6E1,2.8E1],"tree_param":{"num_deleted":"0","num_feature":"28","num_nodes":"13","size_leaf_vector":"1"}},{"base_weights":[5.773497E-3,-1.1473124E0,1.3952504E-1,-1.5440096E-1,-1.5341836E0,7.396805E-1,-2.0314552E-1,3.9650995E-2,-1.02111876E-1,-1.9040655E-1,-8.394521E-2,-6.5721273E-3,1.17200516E-1,-6.7508996E-2,2.0460283E-2],"categories":[],"categories_nodes":[],"categories_segments":[],"categories_sizes":[],"default_left":[0,0,0,0,0,0,0,0,0,0,0,0,0,0,0],"id":40,"left_children":[1,3,5,7,9,11,13,-1,-1,-1,-1,-1,-1,-1,-1],"loss_changes":[3.1159708E1,7.8298283E0,3.7373928E1,3.747274E0,2.256157E0,2.30579E1,2.2460533E1,0E0,0E0,0E0,0E0,0E0,0E0,0E0,0E0],"parents":[2147483647,0,0,1,1,2,2,3,3,4,4,5,5,6,6],"right_children":[2,4,6,8,10,12,14,-1,-1,-1,-1,-1,-1,-1,-1],"split_conditions":[8.095622E1,2.3063187E-2,2.0290393E2,4E0,6.801998E0,1.3504904E2,2.1562679E-1,3.9650995E-2,-1.02111876E-1,-1.9040655E-1,-8.394521E-2,-6.5721273E-3,1.17200516E-1,-6.7508996E-2,2.0460283E-2],"split_indices":[9,15,9,7,10,9,2,0,0,0,0,0,0,0,0],"split_type":[0,0,0,0,0,0,0,0,0,0,0,0,0,0,0],"sum_hessian":[2E2,2E1,1.8E2,6E0,1.4E1,6.5E1,1.15E2,4E0,2E0,8E0,6E0,2.3E1,4.2E1,5.3E1,6.2E1],"tree_param":{"num_deleted":"0","num_feature":"28","num_nodes":"15","size_leaf_vector":"1"}},{"base_weights":[3.8367219E-3,3.826786E-1,-3.4411956E-2,-4.299727E-1,3.6544853E-1,-5.7830628E-2,8.362389E-2,-2.2078902E-2,8.894854E-2],"categories":[],"categories_nodes":[],"categories_segments":[],"categories_sizes":[],"default_left":[0,0,0,0,0,0,0,0,0],"id":41,"left_children":[1,-1,3,5,7,-1,-1,-1,-1],"loss_changes":[2.9522463E1,0E0,3.1790956E1,1.9453592E1,3.0917397E1,0E0,0E0,0E0,0E0],"parents":[2147483647,0,0,2,2,3,3,4,4],"right_children":[2,-1,4,6,8,-1,-1,-1,-1],"split_conditions":[1.0830413E0,3.826786E-1,1E0,9.328521E0,1.5E1,-5.7830628E-2,8.362389E-2,-2.2078902E-2,8.894854E-2],"split_indices":[5,0,22,10,27,0,0,0,0],"split_type":[0,0,0,0,0,0,0,0,0],"sum_hessian":[2E2,1E0,1.99E2,1E2,9.9E1,9E1,1E1,4.7E1,5.2E1],"tree_param":{"num_deleted":"0","num_feature":"28","num_nodes":"9","size_leaf_vector":"1"}},{"base_weights":[5.8179684E-3,-6.843476E-1,2.0929106E-1,-1.6940258E0,-4.905453E-1,-2.6772887E-1,6.3206434E-1,-2.2041535E-1,-7.603915E-2,-6.4484105E-2,2.0724261E-2,2.02767E-1,-4.278612E-2,7.8497976E-2,-1.9104119E-1],"categories":[],"categories_nodes":[],"categories_segments":[],"categories_sizes":[],"default_left":[0,0,0,0,0,0,0,0,0,0,0,0,0,0,0],"id":42,"left_children":[1,3,5,7,9,11,13,-1,-1,-1,-1,-1,-1,-1,-1],"loss_changes":[2.8369682E1,8.170191E0,3.1629942E1,1.6578884E0,4.4402657E0,2.8067564E1,3.3768684E1,0E0,0E0,0E0,0E0,0E0,0E0,0E0,0E0],"parents":[2147483647,0,0,1,1,2,2,3,3,4,4,5,5,6,6],"right_children":[2,4,6,8,10,12,14,-1,-1,-1,-1,-1,-1,-1,-1],"split_conditions":[1E0,1.76174E-1,1E0,3.0722542E0,3.156609E0,2.2406693E-1,4.8766905E-1,-2.2041535E-1,-7.603915E-2,-6.4484105E-2,2.0724261E-2,2.02767E-1,-4.278612E-2,7.8497976E-2,-1.9104119E-1],"split_indices":[6,17,23,4,4,12,12,0,0,0,0,0,0,0,0],"split_type":[0,0,0,0,0,0,0,0,0,0,0,0,0,0,0],"sum_hessian":[2E2,4.5E1,1.55E2,6E0,3.9E1,7.3E1,8.2E1,3E0,3E0,3.2E1,7E0,4E0,6.9E1,7.8E1,4E0],"tree_param":{"num_deleted":"0","num_feature":"28","num_nodes":"15","size_leaf_vector":"1"}},{"base_weights":[3.7790556E-3,3.5474908E-1,-3.761759E-1,4.5644206E-1,-2.3271091E-1,-8.578929E-1,-2.3078166E-2,-4.1912463E-2,7.614928E-2,-1.9089037E-1,-5.452568E-2,-7.186752E-2,3.7234385E-2],"categories":[],"categories_nodes":[],"categories_segments":[],"categories_sizes":[],"default_left":[0,0,0,0,0,0,0,0,0,0,0,0,0],"id":43,"left_children":[1,3,5,7,-1,9,11,-1,-1,-1,-1,-1,-1],"loss_changes":[2.693736E1,2.9698437E1,1.6479239E1,2.7562574E1,0E0,1.2431097E1,1.5945691E1,0E0,0E0,0E0,0E0,0E0,0E0],"parents":[2147483647,0,0,1,1,2,2,3,3,5,5,6,6],"right_children":[2,4,6,8,-1,10,12,-1,-1,-1,-1,-1,-1],"split_conditions":[3E0,9.8642164E-1,5.716694E-1,1.2142926E-1,-2.3271091E-1,1.4079338E-1,2E0,-4.1912463E-2,7.614928E-2,-1.9089037E-1,-5.452568E-2,-7.186752E-2,3.7234385E-2],"split_indices":[24,17,8,0,0,13,16,0,0,0,0,0,0],"split_type":[0,0,0,0,0,0,0,0,0,0,0,0,0],"sum_hessian":[2E2,1.04E2,9.6E1,1.01E2,3E0,4E1,5.6E1,2.6E1,7.5E1,8E0,3.2E1,2E1,3.6E1],"tree_param":{"num_deleted":"0","num_feature":"28","num_nodes":"13","size_leaf_vector":"1"}},{"base_weights":[1.0203129E-3,-3.1226072E-1,4.1511568E-1,-3.5876232E-1,2.494462E-1,2.8100264E-1,2.5583693E-1,-1.2704867E-1,-2.3904487E-2,3.111758E-1,1.726907E-2],"categories":[],"categories_nodes":[],"categories_segments":[],"categories_sizes":[],"default_left":[0,0,0,0,0,0,0,0,0,0,0],"id":44,"left_children":[1,3,5,7,-1,9,-1,-1,-1,-1,-1],"loss_changes":[2.6204994E1,1.5904392E1,2.428822E1,1.2139321E1,0E0,2.4910814E1,0E0,0E0,0E0,0E0,0E0],"parents":[2147483647,0,0,1,1,2,2,3,3,5,5],"right_children":[2,4,6,8,-1,10,-1,-1,-1,-1,-1],"split_conditions":[1E0,2.4636653E-1,1.9205902E2,1E0,2.494462E-1,1.3594861E0,2.5583693E-1,-1.2704867E-1,-2.3904487E-2,3.111758E-1,1.726907E-2],"split_indices":[25,13,18,24,0,5,0,0,0,0,0],"split_type":[0,0,0,0,0,0,0,0,0,0,0],"sum_hessian":[2E2,1.14E2,8.6E1,1.13E2,1E0,8.2E1,4E0,1.2E1,1.01E2,2E0,8E1],"tree_param":{"num_deleted":"0","num_feature":"28","num_nodes":"11","size_leaf_vector":"1"}},{"base_weights":[4.315291E-3,-8.367876E-1,1.509942E-1,-1.3254247E0,-4.8413327E-1,8.258027E-1,-1.483045E-1,-5.7644274E-2,-1.6278604E-1,-1.1266949E-1,-1.008975E-2,-4.899327E-3,1.2402617E-1,5.5792578E-2,-3.4958016E-2],"categories":[],"categories_nodes":[],"categories_segments":[],"categories_sizes":[],"default_left":[0,0,0,0,0,0,0,0,0,0,0,0,0,0,0],"id":45,"left_children":[1,3,5,7,9,11,13,-1,-1,-1,-1,-1,-1,-1,-1],"loss_changes":[2.4924133E1,4.527918E0,3.486119E1,1.7798576E0,4.5651193E0,1.9276821E1,1.7252676E1,0E0,0E0,0E0,0E0,0E0,0E0,0E0,0E0],"parents":[2147483647,0,0,1,1,2,2,3,3,4,4,5,5,6,6],"right_children":[2,4,6,8,10,12,14,-1,-1,-1,-1,-1,-1,-1,-1],"split_conditions":[1.0770923E2,1E0,1.917666E2,3.510044E-2,7.43549E1,4.430684E-2,3.442854E-2,-5.7644274E-2,-1.6278604E-1,-1.1266949E-1,-1.008975E-2,-4.899327E-3,1.2402617E-1,5.5792578E-2,-3.4958016E-2],"split_indices":[9,23,9,15,9,14,14,0,0,0,0,0,0,0,0],"split_type":[0,0,0,0,0,0,0,0,0,0,0,0,0,0,0],"sum_hessian":[2E2,2.9E1,1.71E2,1.1E1,1.8E1,5.2E1,1.19E2,4E0,7E0,6E0,1.2E1,1.7E1,3.5E1,2.6E1,9.3E1],"tree_param":{"num_deleted":"0","num_feature":"28","num_nodes":"15","size_leaf_vector":"1"}},{"base_weights":[2.8728752E-3,3.340521E-1,-3.051797E-2,-3.6926275E-1,3.1191942E-1,-7.014321E-2,5.96909E-3,-1.635186E-1,4.3161117E-2],"categories":[],"categories_nodes":[],"categories_segments":[],"categories_sizes":[],"default_left":[0,0,0,0,0,0,0,0,0],"id":46,"left_children":[1,-1,3,5,7,-1,-1,-1,-1],"loss_changes":[2.250277E1,0E0,2.3314955E1,1.4432879E1,2.4011002E1,0E0,0E0,0E0,0E0],"parents":[2147483647,0,0,2,2,3,3,4,4],"right_children":[2,-1,4,6,8,-1,-1,-1,-1],"split_conditions":[1.0830413E0,3.340521E-1,1E0,3E0,2.7719555E-2,-7.014321E-2,5.96909E-3,-1.635186E-1,4.3161117E-2],"split_indices":[5,0,22,16,2,0,0,0,0],"split_type":[0,0,0,0,0,0,0,0,0],"sum_hessian":[2E2,1E0,1.99E2,1E2,9.9E1,5.6E1,4.4E1,5E0,9.4E1],"tree_param":{"num_deleted":"0","num_feature":"28","num_nodes":"9","size_leaf_vector":"1"}},{"base_weights":[3.3290589E-3,-2.8399572E-1,3.830879E-1,-3.265947E-1,2.2861452E-1,3.0334052E-1,2.8504038E-1,-3.963309E-2,9.947122E-2,-2.7137011E-2,6.799551E-2],"categories":[],"categories_nodes":[],"categories_segments":[],"categories_sizes":[],"default_left":[0,0,0,0,0,0,0,0,0,0,0],"id":47,"left_children":[1,3,5,7,-1,-1,9,-1,-1,-1,-1],"loss_changes":[2.2040733E1,1.3337469E1,2.1742924E1,1.089853E1,0E0,0E0,1.886197E1,0E0,0E0,0E0,0E0],"parents":[2147483647,0,0,1,1,2,2,3,3,6,6],"right_children":[2,4,6,8,-1,-1,10,-1,-1,-1,-1],"split_conditions":[1E0,2.4636653E-1,1.1284254E0,9.42232E-2,2.2861452E-1,3.0334052E-1,2E0,-3.963309E-2,9.947122E-2,-2.7137011E-2,6.799551E-2],"split_indices":[25,13,4,14,0,0,16,0,0,0,0],"split_type":[0,0,0,0,0,0,0,0,0,0,0],"sum_hessian":[2E2,1.14E2,8.6E1,1.13E2,1E0,2E0,8.4E1,1.08E2,5E0,3.5E1,4.9E1],"tree_param":{"num_deleted":"0","num_feature":"28","num_nodes":"11","size_leaf_vector":"1"}},{"base_weights":[6.143684E-3,-5.870223E-1,1.8101223E-1,-1.23591E0,-3.7244487E-1,-7.0929E-1,3.3247444E-1,-1.763917E-1,-5.01918E-2,-1.3586889E-2,-9.7395554E-2,-1.0256825E-1,-1.954116E-2,9.967531E-2,2.8902648E-3],"categories":[],"categories_nodes":[],"categories_segments":[],"categories_sizes":[],"default_left":[0,0,0,0,0,0,0,0,0,0,0,0,0,0,0],"id":48,"left_children":[1,3,5,7,9,11,13,-1,-1,-1,-1,-1,-1,-1,-1],"loss_changes":[2.0955196E1,5.944577E0,2.1271978E1,3.3777409E0,4.990577E0,3.5390759E0,2.6993132E1,0E0,0E0,0E0,0E0,0E0,0E0,0E0,0E0],"parents":[2147483647,0,0,1,1,2,2,3,3,4,4,5,5,6,6],"right_children":[2,4,6,8,10,12,14,-1,-1,-1,-1,-1,-1,-1,-1],"split_conditions":[1E0,1.1160537E-1,1.0770923E2,2.7142399E1,3.880083E-1,1.9E1,1.917666E2,-1.763917E-1,-5.01918E-2,-1.3586889E-2,-9.7395554E-2,-1.0256825E-1,-1.954116E-2,9.967531E-2,2.8902648E-3],"split_indices":[6,2,9,3,0,27,9,0,0,0,0,0,0,0,0],"split_type":[0,0,0,0,0,0,0,0,0,0,0,0,0,0,0],"sum_hessian":[2E2,4.5E1,1.55E2,1E1,3.5E1,2.2E1,1.33E2,5E0,5E0,2.6E1,9E0,1.3E1,9E0,4.1E1,9.2E1],"tree_param":{"num_deleted":"0","num_feature":"28","num_nodes":"15","size_leaf_vector":"1"}},{"base_weights":[3.7526942E-3,-3.785908E-1,2.6498947E-1,-6.1679816E-1,5.6848425E-1,-4.8511267E-1,4.6749124E-1,-1.9618256E-1,-4.4959832E-2,2.118154E-1,8.511543E-3,5.088116E-2,-1.0412379E-1,6.1470725E-2,-1.210321E-1],"categories":[],"categories_nodes":[],"categories_segments":[],"categories_sizes":[],"default_left":[0,0,0,0,0,0,0,0,0,0,0,0,0,0,0],"id":49,"left_children":[1,3,5,7,9,11,13,-1,-1,-1,-1,-1,-1,-1,-1],"loss_changes":[2.0176643E1,1.8849861E1,1.8454426E1,1.3960598E1,1.2553768E1,1.49012E1,2.4209066E1,0E0,0E0,0E0,0E0,0E0,0E0,0E0,0E0],"parents":[2147483647,0,0,1,1,2,2,3,3,4,4,5,5,6,6],"right_children":[2,4,6,8,10,12,14,-1,-1,-1,-1,-1,-1,-1,-1],"split_conditions":[2.1562679E-1,1.668348E2,1.4781018E-1,1E0,1.9379619E0,3.3234727E0,2.2E1,-1.9618256E-1,-4.4959832E-2,2.118154E-1,8.511543E-3,5.088116E-2,-1.0412379E-1,6.1470725E-2,-1.210321E-1],"split_indices":[2,18,13,24,4,5,27,0,0,0,0,0,0,0,0],"split_type":[0,0,0,0,0,0,0,0,0,0,0,0,0,0,0],"sum_hessian":[2E2,8.1E1,1.19E2,6.5E1,1.6E1,2.5E1,9.4E1,6E0,5.9E1,3E0,1.3E1,9E0,1.6E1,8.7E1,7E0],"tree_param":{"num_deleted":"0","num_feature":"28","num_nodes":"15","size_leaf_vector":"1"}}]},"name":"gbtree"},"learner_model_param":{"base_score":"[2.1997404E1]","boost_from_average":"1","num_class":"0","num_feature":"28","num_target":"1"},"objective":{"name":"reg:squarederror","reg_loss_param":{"scale_pos_weight":"1"}}},"version":[3,2,0]}