{"learner":{"attributes":{"scikit_learn":"{\"_estimator_type\": \"regressor\"}"},"feature_names":[],"feature_types":[],"gradient_booster":{"model":{"cats":{"enc":[],"feature_segments":[],"sorted_idx":[]},"gbtree_model_param":{"num_parallel_tree":"1","num_trees":"50"},"iteration_indptr":[0,1,2,3,4,5,6,7,8,9,10,11,12,13,14,15,16,17,18,19,20,21,22,23,24,25,26,27,28,29,30,31,32,33,34,35,36,37,38,39,40,41,42,43,44,45,46,47,48,49,50],"tree_info":[0,0,0,0,0,0,0,0,0,0,0,0,0,0,0,0,0,0,0,0,0,0,0,0,0,0,0,0,0,0,0,0,0,0,0,0,0,0,0,0,0,0,0,0,0,0,0,0,0,0],"trees":[{"base_weights":[3.843165E-7,-2.1847787E0,2.01832E0,-5.9718924E0,-1.1857139E0,-3.8527524E0,2.8173053E0,-6.309798E-1,2.2415353E-2,-3.6980203E-1,-3.703884E-2,-4.5288825E-1,-8.935801E-3,1.770596E-1,5.3103507E-1],"categories":[],"categories_nodes":[],"categories_segments":[],"categories_sizes":[],"default_left":[0,0,0,0,0,0,0,0,0,0,0,0,0,0,0],"id":0,"left_children":[1,3,5,7,9,11,13,-1,-1,-1,-1,-1,-1,-1,-1],"loss_changes":[8.907357E2,3.5992554E2,5.0339886E2,4.328784E1,1.5840143E2,3.2674393E1,2.3328046E2,0E0,0E0,0E0,0E0,0E0,0E0,0E0,0E0],"parents":[2147483647,0,0,1,1,2,2,3,3,4,4,5,5,6,6],"right_children":[2,4,6,8,10,12,14,-1,-1,-1,-1,-1,-1,-1,-1],"split_conditions":[1E0,7.506058E2,5.7483044E2,8E0,1E0,1.04593344E-1,6E0,-6.309798E-1,2.2415353E-2,-3.6980203E-1,-3.703884E-2,-4.5288825E-1,-8.935801E-3,1.770596E-1,5.3103507E-1],"split_indices":[22,9,9,7,6,15,7,0,0,0,0,0,0,0,0],"split_type":[0,0,0,0,0,0,0,0,0,0,0,0,0,0,0],"sum_hessian":[2E2,9.6E1,1.04E2,1.9E1,7.7E1,1.2E1,9.2E1,1.8E1,1E0,1.8E1,5.9E1,1E1,2E0,6.6E1,2.6E1],"tree_param":{"num_deleted":"0","num_feature":"26","num_nodes":"15","size_leaf_vector":"1"}},{"base_weights":[-3.8259563E-3,-2.8940036E0,1.2761372E0,-5.168247E0,-1.420264E0,-8.78109E-1,2.9997447E0,-8.340073E-3,-5.626715E-1,-3.7345752E-1,-6.014849E-2,-2.2388498E-1,6.933345E-2,4.1204372E-1,8.5134946E-2],"categories":[],"categories_nodes":[],"categories_segments":[],"categories_sizes":[],"default_left":[0,0,0,0,0,0,0,0,0,0,0,0,0,0,0],"id":1,"left_children":[1,3,5,7,9,11,13,-1,-1,-1,-1,-1,-1,-1,-1],"loss_changes":[7.4725665E2,2.0046161E2,5.2246454E2,5.548047E1,7.165517E1,1.362669E2,1.8429193E2,0E0,0E0,0E0,0E0,0E0,0E0,0E0,0E0],"parents":[2147483647,0,0,1,1,2,2,3,3,4,4,5,5,6,6],"right_children":[2,4,6,8,10,12,14,-1,-1,-1,-1,-1,-1,-1,-1],"split_conditions":[9.2366284E2,6.054108E2,1E0,1.4011154E2,1E0,1E0,1.574392E3,-8.340073E-3,-5.626715E-1,-3.7345752E-1,-6.014849E-2,-2.2388498E-1,6.933345E-2,4.1204372E-1,8.5134946E-2],"split_indices":[9,9,22,18,6,23,9,0,0,0,0,0,0,0,0],"split_type":[0,0,0,0,0,0,0,0,0,0,0,0,0,0,0],"sum_hessian":[2E2,6.1E1,1.39E2,2.3E1,3.8E1,6.2E1,7.7E1,2E0,2.1E1,9E0,2.9E1,3.3E1,2.9E1,5E1,2.7E1],"tree_param":{"num_deleted":"0","num_feature":"26","num_nodes":"15","size_leaf_vector":"1"}},{"base_weights":[-6.7371777E-3,-1.8238808E0,1.6720215E0,-5.672275E0,-1.1064134E0,-3.0688944E0,2.3167515E0,-6.142311E-1,-1.7446934E-1,-3.3571997E-1,-3.3858918E-2,-3.6056462E-1,-7.7840174E-3,-1.1596912E-1,2.8961697E-1],"categories":[],"categories_nodes":[],"categories_segments":[],"categories_sizes":[],"default_left":[0,0,0,0,0,0,0,0,0,0,0,0,0,0,0],"id":2,"left_children":[1,3,5,7,9,11,13,-1,-1,-1,-1,-1,-1,-1,-1],"loss_changes":[6.162093E2,2.6155057E2,3.2805396E2,1.6975128E1,1.423046E2,2.0590218E1,1.9068979E2,0E0,0E0,0E0,0E0,0E0,0E0,0E0,0E0],"parents":[2147483647,0,0,1,1,2,2,3,3,4,4,5,5,6,6],"right_children":[2,4,6,8,10,12,14,-1,-1,-1,-1,-1,-1,-1,-1],"split_conditions":[1E0,6.76644E2,5.7483044E2,6.6850494E1,1E0,1.04593344E-1,1E0,-6.142311E-1,-1.7446934E-1,-3.3571997E-1,-3.3858918E-2,-3.6056462E-1,-7.7840174E-3,-1.1596912E-1,2.8961697E-1],"split_indices":[22,9,9,3,6,15,6,0,0,0,0,0,0,0,0],"split_type":[0,0,0,0,0,0,0,0,0,0,0,0,0,0,0],"sum_hessian":[2E2,9.6E1,1.04E2,1.4E1,8.2E1,1.2E1,9.2E1,1.2E1,2E0,2E1,6.2E1,1E1,2E0,1.3E1,7.9E1],"tree_param":{"num_deleted":"0","num_feature":"26","num_nodes":"15","size_leaf_vector":"1"}},{"base_weights":[-1.2794822E-2,-2.3135743E0,1.1291683E0,-4.261131E0,-1.1986896E0,2.415109E0,-7.852017E-1,-2.0592761E-1,-5.444959E-1,-2.3199299E-1,5.497647E-2,-1.7206343E-1,3.4596094E-1,-1.5024747E-1,2.2204785E-1],"categories":[],"categories_nodes":[],"categories_segments":[],"categories_sizes":[],"default_left":[0,0,0,0,0,0,0,0,0,0,0,0,0,0,0],"id":3,"left_children":[1,3,5,7,9,11,13,-1,-1,-1,-1,-1,-1,-1,-1],"loss_changes":[5.3072095E2,1.4036938E2,3.342348E2,5.134616E1,8.753464E1,3.5585532E2,1.2191033E2,0E0,0E0,0E0,0E0,0E0,0E0,0E0,0E0],"parents":[2147483647,0,0,1,1,2,2,3,3,4,4,5,5,6,6],"right_children":[2,4,6,8,10,12,14,-1,-1,-1,-1,-1,-1,-1,-1],"split_conditions":[9.8377795E2,6.054108E2,1.5428892E3,1.3E1,5E0,1E0,2.261762E1,-2.0592761E-1,-5.444959E-1,-2.3199299E-1,5.497647E-2,-1.7206343E-1,3.4596094E-1,-1.5024747E-1,2.2204785E-1],"split_indices":[9,9,9,25,7,6,10,0,0,0,0,0,0,0,0],"split_type":[0,0,0,0,0,0,0,0,0,0,0,0,0,0,0],"sum_hessian":[2E2,6.6E1,1.34E2,2.3E1,4.3E1,8E1,5.4E1,9E0,1.4E1,2.6E1,1.7E1,1.6E1,6.4E1,4.4E1,1E1],"tree_param":{"num_deleted":"0","num_feature":"26","num_nodes":"15","size_leaf_vector":"1"}},{"base_weights":[-1.4907035E-2,-1.600765E0,1.4502656E0,-3.7812078E0,-7.0571977E-1,-6.957894E-1,2.4877539E0,-5.570972E-1,-2.2954212E-1,-3.438929E-1,1.678039E-2,-2.4700336E-1,3.3729598E-2,3.6503628E-1,5.719486E-2],"categories":[],"categories_nodes":[],"categories_segments":[],"categories_sizes":[],"default_left":[0,0,0,0,0,0,0,0,0,0,0,0,0,0,0],"id":4,"left_children":[1,3,5,7,9,11,13,-1,-1,-1,-1,-1,-1,-1,-1],"loss_changes":[4.6935626E2,1.866362E2,2.3551418E2,6.1670135E1,1.6770367E2,6.498622E1,1.5605273E2,0E0,0E0,0E0,0E0,0E0,0E0,0E0,0E0],"parents":[2147483647,0,0,1,1,2,2,3,3,4,4,5,5,6,6],"right_children":[2,4,6,8,10,12,14,-1,-1,-1,-1,-1,-1,-1,-1],"split_conditions":[1E0,2E0,1.035768E3,3E0,3.3438534E-2,5.7483044E2,1.574392E3,-5.570972E-1,-2.2954212E-1,-3.438929E-1,1.678039E-2,-2.4700336E-1,3.3729598E-2,3.6503628E-1,5.719486E-2],"split_indices":[22,16,9,7,15,9,9,0,0,0,0,0,0,0,0],"split_type":[0,0,0,0,0,0,0,0,0,0,0,0,0,0,0],"sum_hessian":[2E2,9.6E1,1.04E2,2.7E1,6.9E1,3.4E1,7E1,1.1E1,1.6E1,1.6E1,5.3E1,1.2E1,2.2E1,4.3E1,2.7E1],"tree_param":{"num_deleted":"0","num_feature":"26","num_nodes":"15","size_leaf_vector":"1"}},{"base_weights":[-1.7918007E-2,-1.4521708E0,1.307229E0,-4.0476527E0,-7.680451E-1,-6.323039E-1,2.2449253E0,-4.436658E-1,-3.644047E-2,-1.9086616E-1,3.6325715E-2,-1.4370994E-1,1.254259E-1,3.312046E-1,3.8324535E-2],"categories":[],"categories_nodes":[],"categories_segments":[],"categories_sizes":[],"default_left":[0,0,0,0,0,0,0,0,0,0,0,0,0,0,0],"id":5,"left_children":[1,3,5,7,9,11,13,-1,-1,-1,-1,-1,-1,-1,-1],"loss_changes":[3.8391812E2,1.6912793E2,1.9238219E2,2.7039307E1,1.0134314E2,5.49429E1,1.3978189E2,0E0,0E0,0E0,0E0,0E0,0E0,0E0,0E0],"parents":[2147483647,0,0,1,1,2,2,3,3,4,4,5,5,6,6],"right_children":[2,4,6,8,10,12,14,-1,-1,-1,-1,-1,-1,-1,-1],"split_conditions":[1E0,7.506058E2,1.035768E3,9.112086E-1,1E0,7E0,1.6E1,-4.436658E-1,-3.644047E-2,-1.9086616E-1,3.6325715E-2,-1.4370994E-1,1.254259E-1,3.312046E-1,3.8324535E-2],"split_indices":[22,9,9,17,23,7,25,0,0,0,0,0,0,0,0],"split_type":[0,0,0,0,0,0,0,0,0,0,0,0,0,0,0],"sum_hessian":[2E2,9.6E1,1.04E2,1.9E1,7.7E1,3.4E1,7E1,1.7E1,2E0,3.8E1,3.9E1,2.4E1,1E1,4.4E1,2.6E1],"tree_param":{"num_deleted":"0","num_feature":"26","num_nodes":"15","size_leaf_vector":"1"}},{"base_weights":[-1.7536215E-2,-1.911838E0,8.2149416E-1,-3.068675E0,-6.5601164E-1,-5.4800296E-1,2.050343E0,-4.251228E-1,-2.035811E-1,-3.7189072E-1,7.6041664E-3,-1.3008247E-1,1.162979E-1,2.9921732E-3,2.9609266E-1],"categories":[],"categories_nodes":[],"categories_segments":[],"categories_sizes":[],"default_left":[0,0,0,0,0,0,0,0,0,0,0,0,0,0,0],"id":6,"left_children":[1,3,5,7,9,11,13,-1,-1,-1,-1,-1,-1,-1,-1],"loss_changes":[3.210353E2,8.805966E1,2.3673026E2,3.0430634E1,6.979107E1,8.781314E1,1.3605383E2,0E0,0E0,0E0,0E0,0E0,0E0,0E0,0E0],"parents":[2147483647,0,0,1,1,2,2,3,3,4,4,5,5,6,6],"right_children":[2,4,6,8,10,12,14,-1,-1,-1,-1,-1,-1,-1,-1],"split_conditions":[9.2366284E2,2.2536449E-1,1E0,6.054108E2,3.5700694E-2,1.1233674E-1,3E0,-4.251228E-1,-2.035811E-1,-3.7189072E-1,7.6041664E-3,-1.3008247E-1,1.162979E-1,2.9921732E-3,2.9609266E-1],"split_indices":[9,2,23,9,15,15,7,0,0,0,0,0,0,0,0],"split_type":[0,0,0,0,0,0,0,0,0,0,0,0,0,0,0],"sum_hessian":[2E2,6.1E1,1.39E2,3.1E1,3E1,6.6E1,7.3E1,1.3E1,1.8E1,5E0,2.5E1,4.6E1,2E1,2.3E1,5E1],"tree_param":{"num_deleted":"0","num_feature":"26","num_nodes":"15","size_leaf_vector":"1"}},{"base_weights":[-1.930355E-2,-1.2757946E0,1.1416388E0,-3.1879253E0,-4.9271676E-1,-1.9994854E0,1.568445E0,-4.6766815E-1,-1.9495136E-1,-2.829586E-1,1.9605828E-2,-7.464547E-2,-2.9668754E-1,7.2815195E-2,3.595526E-1],"categories":[],"categories_nodes":[],"categories_segments":[],"categories_sizes":[],"default_left":[0,0,0,0,0,0,0,0,0,0,0,0,0,0,0],"id":7,"left_children":[1,3,5,7,9,11,13,-1,-1,-1,-1,-1,-1,-1,-1],"loss_changes":[2.9465796E2,1.4367194E2,1.4390446E2,4.2506195E1,1.1322517E2,1.3543564E1,1.5579268E2,0E0,0E0,0E0,0E0,0E0,0E0,0E0,0E0],"parents":[2147483647,0,0,1,1,2,2,3,3,4,4,5,5,6,6],"right_children":[2,4,6,8,10,12,14,-1,-1,-1,-1,-1,-1,-1,-1],"split_conditions":[1E0,2E0,5.7483044E2,3E0,2.9470362E-2,4.906489E-2,6E0,-4.6766815E-1,-1.9495136E-1,-2.829586E-1,1.9605828E-2,-7.464547E-2,-2.9668754E-1,7.2815195E-2,3.595526E-1],"split_indices":[22,16,9,7,15,14,7,0,0,0,0,0,0,0,0],"split_type":[0,0,0,0,0,0,0,0,0,0,0,0,0,0,0],"sum_hessian":[2E2,9.6E1,1.04E2,2.7E1,6.9E1,1.2E1,9.2E1,1.1E1,1.6E1,1.5E1,5.4E1,6E0,6E0,6.6E1,2.6E1],"tree_param":{"num_deleted":"0","num_feature":"26","num_nodes":"15","size_leaf_vector":"1"}},{"base_weights":[-2.1676075E-2,-1.157761E0,1.0280564E0,-2.8927972E0,-4.4720703E-1,-2.3051006E-1,2.0519035E0,-3.3716193E-1,-1.5892601E-3,-2.564312E-1,1.7680911E-2,1.5419777E-1,-1.16494074E-1,1.5306704E-2,2.9025534E-1],"categories":[],"categories_nodes":[],"categories_segments":[],"categories_sizes":[],"default_left":[0,0,0,0,0,0,0,0,0,0,0,0,0,0,0],"id":8,"left_children":[1,3,5,7,9,11,13,-1,-1,-1,-1,-1,-1,-1,-1],"loss_changes":[2.4089986E2,1.18291504E2,1.3577386E2,3.8517105E1,9.293094E1,8.129711E1,9.32399E1,0E0,0E0,0E0,0E0,0E0,0E0,0E0,0E0],"parents":[2147483647,0,0,1,1,2,2,3,3,4,4,5,5,6,6],"right_children":[2,4,6,8,10,12,14,-1,-1,-1,-1,-1,-1,-1,-1],"split_conditions":[1E0,2E0,1E0,5E0,2.9470362E-2,1.1E1,3E0,-3.3716193E-1,-1.5892601E-3,-2.564312E-1,1.7680911E-2,1.5419777E-1,-1.16494074E-1,1.5306704E-2,2.9025534E-1],"split_indices":[22,16,23,19,15,25,7,0,0,0,0,0,0,0,0],"split_type":[0,0,0,0,0,0,0,0,0,0,0,0,0,0,0],"sum_hessian":[2E2,9.6E1,1.04E2,2.7E1,6.9E1,4.7E1,5.7E1,2.3E1,4E0,1.5E1,5.4E1,1.6E1,3.1E1,1.8E1,3.9E1],"tree_param":{"num_deleted":"0","num_feature":"26","num_nodes":"15","size_leaf_vector":"1"}},{"base_weights":[-2.0673806E-2,-2.8977184E0,3.6735848E-1,-1.3273491E0,-3.7514503E0,-2.0101957E0,9.223204E-1,-2.1967681E-1,-3.816085E-2,-1.3007903E-1,-4.255716E-1,-7.372513E-2,-2.4389656E-1,1.6656543E-1,-6.145346E-2],"categories":[],"categories_nodes":[],"categories_segments":[],"categories_sizes":[],"default_left":[0,0,0,0,0,0,0,0,0,0,0,0,0,0,0],"id":9,"left_children":[1,3,5,7,9,11,13,-1,-1,-1,-1,-1,-1,-1,-1],"loss_changes":[2.2545813E2,2.7196701E1,2.367165E2,7.384142E0,1.3000961E1,1.6759079E1,1.6667108E2,0E0,0E0,0E0,0E0,0E0,0E0,0E0,0E0],"parents":[2147483647,0,0,1,1,2,2,3,3,4,4,5,5,6,6],"right_children":[2,4,6,8,10,12,14,-1,-1,-1,-1,-1,-1,-1,-1],"split_conditions":[6.054108E2,1.3E1,1E0,1E0,2E0,3.5460763E0,1.5428892E3,-2.1967681E-1,-3.816085E-2,-1.3007903E-1,-4.255716E-1,-7.372513E-2,-2.4389656E-1,1.6656543E-1,-6.145346E-2],"split_indices":[9,25,6,23,11,4,9,0,0,0,0,0,0,0,0],"split_type":[0,0,0,0,0,0,0,0,0,0,0,0,0,0,0],"sum_hessian":[2E2,2.3E1,1.77E2,9E0,1.4E1,3.3E1,1.44E2,4E0,5E0,3E0,1.1E1,9E0,2.4E1,9.7E1,4.7E1],"tree_param":{"num_deleted":"0","num_feature":"26","num_nodes":"15","size_leaf_vector":"1"}},{"base_weights":[-2.3710838E-2,-1.4634193E0,6.9098675E-1,-2.376762E0,-4.5037642E-1,1.6338383E0,-7.1013975E-1,-3.8048232E-1,-1.8127134E-1,-2.6276365E-1,1.3077899E-2,-1.4416662E-1,2.413065E-1,-1.2384863E-1,1.5158364E-1],"categories":[],"categories_nodes":[],"categories_segments":[],"categories_sizes":[],"default_left":[0,0,0,0,0,0,0,0,0,0,0,0,0,0,0],"id":10,"left_children":[1,3,5,7,9,11,13,-1,-1,-1,-1,-1,-1,-1,-1],"loss_changes":[2.0783139E2,6.0921677E1,1.7950256E2,2.1295288E1,4.209941E1,1.9759657E2,6.6562126E1,0E0,0E0,0E0,0E0,0E0,0E0,0E0,0E0],"parents":[2147483647,0,0,1,1,2,2,3,3,4,4,5,5,6,6],"right_children":[2,4,6,8,10,12,14,-1,-1,-1,-1,-1,-1,-1,-1],"split_conditions":[9.8377795E2,2.2536449E-1,1.5428892E3,2E0,3.5700694E-2,1E0,2.261762E1,-3.8048232E-1,-1.8127134E-1,-2.6276365E-1,1.3077899E-2,-1.4416662E-1,2.413065E-1,-1.2384863E-1,1.5158364E-1],"split_indices":[9,2,9,16,15,6,10,0,0,0,0,0,0,0,0],"split_type":[0,0,0,0,0,0,0,0,0,0,0,0,0,0,0],"sum_hessian":[2E2,6.6E1,1.34E2,3.4E1,3.2E1,8E1,5.4E1,8E0,2.6E1,6E0,2.6E1,1.6E1,6.4E1,4.4E1,1E1],"tree_param":{"num_deleted":"0","num_feature":"26","num_nodes":"15","size_leaf_vector":"1"}},{"base_weights":[-2.475568E-2,-9.8499656E-1,8.6255974E-1,-2.4668405E0,-3.781876E-1,-2.5083336E-1,1.7691168E0,-3.793994E-1,-1.5187556E-1,-2.158381E-1,1.46563E-2,2.1363926E-1,-8.565109E-2,6.9334432E-3,2.5322855E-1],"categories":[],"categories_nodes":[],"categories_segments":[],"categories_sizes":[],"default_left":[0,0,0,0,0,0,0,0,0,0,0,0,0,0,0],"id":11,"left_children":[1,3,5,7,9,11,13,-1,-1,-1,-1,-1,-1,-1,-1],"loss_changes":[1.7210896E2,8.62891E1,1.0642596E2,2.9468964E1,6.570737E1,7.123253E1,7.506325E1,0E0,0E0,0E0,0E0,0E0,0E0,0E0,0E0],"parents":[2147483647,0,0,1,1,2,2,3,3,4,4,5,5,6,6],"right_children":[2,4,6,8,10,12,14,-1,-1,-1,-1,-1,-1,-1,-1],"split_conditions":[1E0,2E0,1E0,2.0781521E-1,2.9470362E-2,2.6444685E-1,1.0000478E3,-3.793994E-1,-1.5187556E-1,-2.158381E-1,1.46563E-2,2.1363926E-1,-8.565109E-2,6.9334432E-3,2.5322855E-1],"split_indices":[22,16,23,2,15,12,9,0,0,0,0,0,0,0,0],"split_type":[0,0,0,0,0,0,0,0,0,0,0,0,0,0,0],"sum_hessian":[2E2,9.6E1,1.04E2,2.7E1,6.9E1,4.7E1,5.7E1,1E1,1.7E1,1.5E1,5.4E1,9E0,3.8E1,1.8E1,3.9E1],"tree_param":{"num_deleted":"0","num_feature":"26","num_nodes":"15","size_leaf_vector":"1"}},{"base_weights":[-2.3992987E-2,-1.2501868E0,6.264431E-1,-2.6149006E0,-1.6127892E-1,-1.3977505E0,1.089206E0,-2.9924875E-1,-5.2952194E-3,-2.1058033E-1,4.7118958E-2,-1.723196E-1,2.4867058E-2,-9.937865E-3,2.1155615E-1],"categories":[],"categories_nodes":[],"categories_segments":[],"categories_sizes":[],"default_left":[0,0,0,0,0,0,0,0,0,0,0,0,0,0,0],"id":12,"left_children":[1,3,5,7,9,11,13,-1,-1,-1,-1,-1,-1,-1,-1],"loss_changes":[1.6109286E2,1.03601616E2,1.2516972E2,2.9829636E1,5.018625E1,1.3824017E1,1.3196056E2,0E0,0E0,0E0,0E0,0E0,0E0,0E0,0E0],"parents":[2147483647,0,0,1,1,2,2,3,3,4,4,5,5,6,6],"right_children":[2,4,6,8,10,12,14,-1,-1,-1,-1,-1,-1,-1,-1],"split_conditions":[3E0,2.0781521E-1,1E0,9.2748845E-1,3.5700694E-2,2.2213674E-1,1E0,-2.9924875E-1,-5.2952194E-3,-2.1058033E-1,4.7118958E-2,-1.723196E-1,2.4867058E-2,-9.937865E-3,2.1155615E-1],"split_indices":[7,2,6,17,15,13,23,0,0,0,0,0,0,0,0],"split_type":[0,0,0,0,0,0,0,0,0,0,0,0,0,0,0],"sum_hessian":[2E2,6.9E1,1.31E2,3E1,3.9E1,2.4E1,1.07E2,2.6E1,4E0,9E0,3E1,2E1,4E0,5E1,5.7E1],"tree_param":{"num_deleted":"0","num_feature":"26","num_nodes":"15","size_leaf_vector":"1"}},{"base_weights":[-2.3652487E-2,-2.3359058E0,2.8824487E-1,-9.8313683E-1,-2.950844E0,-1.5144426E0,7.089561E-1,-1.6619407E-1,-3.6674485E-2,-1.0589533E-1,-3.3059764E-1,-4.2073842E-2,-1.8913466E-1,1.3639295E-1,-4.88668E-2],"categories":[],"categories_nodes":[],"categories_segments":[],"categories_sizes":[],"default_left":[0,0,0,0,0,0,0,0,0,0,0,0,0,0,0],"id":13,"left_children":[1,3,5,7,9,11,13,-1,-1,-1,-1,-1,-1,-1,-1],"loss_changes":[1.4563164E2,1.7063782E1,1.360708E2,3.1561747E0,7.2490845E0,1.3219765E1,1.1440624E2,0E0,0E0,0E0,0E0,0E0,0E0,0E0,0E0],"parents":[2147483647,0,0,1,1,2,2,3,3,4,4,5,5,6,6],"right_children":[2,4,6,8,10,12,14,-1,-1,-1,-1,-1,-1,-1,-1],"split_conditions":[6.054108E2,1.2E1,1E0,3E0,2E0,3.5460763E0,1.5047617E3,-1.6619407E-1,-3.6674485E-2,-1.0589533E-1,-3.3059764E-1,-4.2073842E-2,-1.8913466E-1,1.3639295E-1,-4.88668E-2],"split_indices":[9,25,6,16,11,4,9,0,0,0,0,0,0,0,0],"split_type":[0,0,0,0,0,0,0,0,0,0,0,0,0,0,0],"sum_hessian":[2E2,2.3E1,1.77E2,8E0,1.5E1,3.3E1,1.44E2,3E0,5E0,3E0,1.2E1,9E0,2.4E1,9.3E1,5.1E1],"tree_param":{"num_deleted":"0","num_feature":"26","num_nodes":"15","size_leaf_vector":"1"}},{"base_weights":[-2.5182925E-2,-1.1570637E0,5.752477E-1,-1.939519E0,-3.1919366E-1,1.6258839E0,-4.075924E-1,-6.820172E-2,-2.2744475E-1,-2.0667271E-1,1.1363144E-2,-8.3747566E-2,2.2702204E-1,-1.2018051E-1,8.723609E-2],"categories":[],"categories_nodes":[],"categories_segments":[],"categories_sizes":[],"default_left":[0,0,0,0,0,0,0,0,0,0,0,0,0,0,0],"id":14,"left_children":[1,3,5,7,9,11,13,-1,-1,-1,-1,-1,-1,-1,-1],"loss_changes":[1.372684E2,4.527263E1,1.3696686E2,1.3611023E1,2.6708015E1,1.034841E2,7.119071E1,0E0,0E0,0E0,0E0,0E0,0E0,0E0,0E0],"parents":[2147483647,0,0,1,1,2,2,3,3,4,4,5,5,6,6],"right_children":[2,4,6,8,10,12,14,-1,-1,-1,-1,-1,-1,-1,-1],"split_conditions":[1.0000478E3,2.2536449E-1,1.4225737E3,2.8788475E1,3.5700694E-2,1E0,1.6032148E1,-6.820172E-2,-2.2744475E-1,-2.0667271E-1,1.1363144E-2,-8.3747566E-2,2.2702204E-1,-1.2018051E-1,8.723609E-2],"split_indices":[9,2,9,8,15,6,10,0,0,0,0,0,0,0,0],"split_type":[0,0,0,0,0,0,0,0,0,0,0,0,0,0,0],"sum_hessian":[2E2,6.9E1,1.31E2,3.5E1,3.4E1,6.3E1,6.8E1,8E0,2.7E1,6E0,2.8E1,1.3E1,5E1,4.2E1,2.6E1],"tree_param":{"num_deleted":"0","num_feature":"26","num_nodes":"15","size_leaf_vector":"1"}},{"base_weights":[-2.4558507E-2,-1.1053935E0,5.487976E-1,-2.2833817E0,-1.6481772E-1,-3.491658E-1,1.30195E0,-3.821797E-1,-1.5821157E-1,-1.7474696E-1,3.5103183E-2,8.274007E-2,-8.225529E-2,-7.3205166E-2,1.8055375E-1],"categories":[],"categories_nodes":[],"categories_segments":[],"categories_sizes":[],"default_left":[0,0,0,0,0,0,0,0,0,0,0,0,0,0,0],"id":15,"left_children":[1,3,5,7,9,11,13,-1,-1,-1,-1,-1,-1,-1,-1],"loss_changes":[1.25167015E2,7.718276E1,8.972664E1,2.7397476E1,3.3269825E1,3.4655838E1,7.507118E1,0E0,0E0,0E0,0E0,0E0,0E0,0E0,0E0],"parents":[2147483647,0,0,1,1,2,2,3,3,4,4,5,5,6,6],"right_children":[2,4,6,8,10,12,14,-1,-1,-1,-1,-1,-1,-1,-1],"split_conditions":[3E0,2.0781521E-1,1E0,2E0,3.5700694E-2,2.9034644E-1,1E0,-3.821797E-1,-1.5821157E-1,-1.7474696E-1,3.5103183E-2,8.274007E-2,-8.225529E-2,-7.3205166E-2,1.8055375E-1],"split_indices":[7,2,23,16,15,12,6,0,0,0,0,0,0,0,0],"split_type":[0,0,0,0,0,0,0,0,0,0,0,0,0,0,0],"sum_hessian":[2E2,6.9E1,1.31E2,3E1,3.9E1,6E1,7.1E1,8E0,2.2E1,9E0,3E1,1.7E1,4.3E1,1.4E1,5.7E1],"tree_param":{"num_deleted":"0","num_feature":"26","num_nodes":"15","size_leaf_vector":"1"}},{"base_weights":[-2.4949545E-2,-8.1474394E-1,7.0490766E-1,-2.0147994E0,-3.230826E-1,1.4640387E0,-1.5941723E-1,-2.4933866E-1,-5.0665785E-2,-1.5813276E-1,7.901455E-3,2.3862784E-1,2.2501035E-2,1.7610238E-1,-6.2392928E-2],"categories":[],"categories_nodes":[],"categories_segments":[],"categories_sizes":[],"default_left":[0,0,0,0,0,0,0,0,0,0,0,0,0,0,0],"id":16,"left_children":[1,3,5,7,9,11,13,-1,-1,-1,-1,-1,-1,-1,-1],"loss_changes":[1.1643817E2,5.658107E1,6.9127655E1,1.8946487E1,3.554052E1,6.345321E1,4.570215E1,0E0,0E0,0E0,0E0,0E0,0E0,0E0,0E0],"parents":[2147483647,0,0,1,1,2,2,3,3,4,4,5,5,6,6],"right_children":[2,4,6,8,10,12,14,-1,-1,-1,-1,-1,-1,-1,-1],"split_conditions":[1E0,2E0,3.5436237E-1,7.536548E-2,3.3438534E-2,1.6E1,3.1532433E-2,-2.4933866E-1,-5.0665785E-2,-1.5813276E-1,7.901455E-3,2.3862784E-1,2.2501035E-2,1.7610238E-1,-6.2392928E-2],"split_indices":[22,16,12,14,15,25,14,0,0,0,0,0,0,0,0],"split_type":[0,0,0,0,0,0,0,0,0,0,0,0,0,0,0],"sum_hessian":[2E2,9.6E1,1.04E2,2.7E1,6.9E1,5.5E1,4.9E1,2E1,7E0,1.6E1,5.3E1,3.1E1,2.4E1,9E0,4E1],"tree_param":{"num_deleted":"0","num_feature":"26","num_nodes":"15","size_leaf_vector":"1"}},{"base_weights":[-2.282992E-2,-9.818927E-1,5.0851893E-1,-1.913199E0,-5.0570405E-1,1.479595E0,-3.7141195E-1,-9.4254844E-2,-2.4327528E-1,-9.1501065E-2,6.9814585E-2,-6.6657506E-2,2.0080073E-1,3.741939E-2,-1.5451024E-1],"categories":[],"categories_nodes":[],"categories_segments":[],"categories_sizes":[],"default_left":[0,0,0,0,0,0,0,0,0,0,0,0,0,0,0],"id":17,"left_children":[1,3,5,7,9,11,13,-1,-1,-1,-1,-1,-1,-1,-1],"loss_changes":[1.0292829E2,3.0962868E1,1.116319E2,9.810333E0,2.478325E1,7.165036E1,6.0960785E1,0E0,0E0,0E0,0E0,0E0,0E0,0E0,0E0],"parents":[2147483647,0,0,1,1,2,2,3,3,4,4,5,5,6,6],"right_children":[2,4,6,8,10,12,14,-1,-1,-1,-1,-1,-1,-1,-1],"split_conditions":[1.0390408E3,6.054108E2,1.4225737E3,1.3E1,7E0,1E0,4E0,-9.4254844E-2,-2.4327528E-1,-9.1501065E-2,6.9814585E-2,-6.6657506E-2,2.0080073E-1,3.741939E-2,-1.5451024E-1],"split_indices":[9,9,9,25,7,6,11,0,0,0,0,0,0,0,0],"split_type":[0,0,0,0,0,0,0,0,0,0,0,0,0,0,0],"sum_hessian":[2E2,7.1E1,1.29E2,2.3E1,4.8E1,6.1E1,6.8E1,9E0,1.4E1,3.6E1,1.2E1,1.2E1,4.9E1,4.2E1,2.6E1],"tree_param":{"num_deleted":"0","num_feature":"26","num_nodes":"15","size_leaf_vector":"1"}},{"base_weights":[-2.2249108E-2,-9.503511E-1,4.7009474E-1,-1.9679706E0,-1.3793722E-1,-2.9572368E-1,1.1123841E0,-3.272979E-1,-1.3717513E-1,-6.5411374E-2,1.1209841E-1,-7.087708E-2,7.303762E-2,-1.5781112E-2,1.7507695E-1],"categories":[],"categories_nodes":[],"categories_segments":[],"categories_sizes":[],"default_left":[0,0,0,0,0,0,0,0,0,0,0,0,0,0,0],"id":18,"left_children":[1,3,5,7,9,11,13,-1,-1,-1,-1,-1,-1,-1,-1],"loss_changes":[9.229276E1,5.759952E1,6.525673E1,1.96305E1,2.6726274E1,2.6371151E1,5.865921E1,0E0,0E0,0E0,0E0,0E0,0E0,0E0,0E0],"parents":[2147483647,0,0,1,1,2,2,3,3,4,4,5,5,6,6],"right_children":[2,4,6,8,10,12,14,-1,-1,-1,-1,-1,-1,-1,-1],"split_conditions":[3E0,2.0781521E-1,1E0,2E0,8.2283065E-2,1.5427445E1,9.8344244E2,-3.272979E-1,-1.3717513E-1,-6.5411374E-2,1.1209841E-1,-7.087708E-2,7.303762E-2,-1.5781112E-2,1.7507695E-1],"split_indices":[7,2,23,16,14,5,9,0,0,0,0,0,0,0,0],"split_type":[0,0,0,0,0,0,0,0,0,0,0,0,0,0,0],"sum_hessian":[2E2,6.9E1,1.31E2,3E1,3.9E1,6E1,7.1E1,8E0,2.2E1,2.8E1,1.1E1,4.3E1,1.7E1,2.4E1,4.7E1],"tree_param":{"num_deleted":"0","num_feature":"26","num_nodes":"15","size_leaf_vector":"1"}},{"base_weights":[-2.1299727E-2,-7.120559E-1,6.170303E-1,-1.3267245E0,-1.7337385E-3,1.3552332E-1,1.711233E0,-2.2098339E-1,-5.501262E-2,2.2519504E-1,-2.1133846E-2,-1.18824795E-1,6.824563E-2,-4.0905286E-2,2.2162627E-1],"categories":[],"categories_nodes":[],"categories_segments":[],"categories_sizes":[],"default_left":[0,0,0,0,0,0,0,0,0,0,0,0,0,0,0],"id":19,"left_children":[1,3,5,7,9,11,13,-1,-1,-1,-1,-1,-1,-1,-1],"loss_changes":[8.9066376E1,4.2349133E1,5.508904E1,3.444702E1,2.2205532E1,5.438797E1,3.51724E1,0E0,0E0,0E0,0E0,0E0,0E0,0E0,0E0],"parents":[2147483647,0,0,1,1,2,2,3,3,4,4,5,5,6,6],"right_children":[2,4,6,8,10,12,14,-1,-1,-1,-1,-1,-1,-1,-1],"split_conditions":[1E0,5E0,6E0,2.5356126E-1,1.3846875E2,1.0935984E-1,7.354949E2,-2.2098339E-1,-5.501262E-2,2.2519504E-1,-2.1133846E-2,-1.18824795E-1,6.824563E-2,-4.0905286E-2,2.2162627E-1],"split_indices":[22,7,7,2,18,2,9,0,0,0,0,0,0,0,0],"split_type":[0,0,0,0,0,0,0,0,0,0,0,0,0,0,0],"sum_hessian":[2E2,9.6E1,1.04E2,5.1E1,4.5E1,7.3E1,3.1E1,2.3E1,2.8E1,3E0,4.2E1,2.1E1,5.2E1,6E0,2.5E1],"tree_param":{"num_deleted":"0","num_feature":"26","num_nodes":"15","size_leaf_vector":"1"}},{"base_weights":[-1.8880261E-2,-6.415923E-1,5.565669E-1,-1.656535E0,-2.2644962E-1,-4.1037115E-1,1.0054464E0,-6.68986E-2,-2.1680073E-1,1.0653149E-1,-5.1207878E-2,-8.464004E-2,7.20739E-2,1.9391082E-1,6.9844457E-3],"categories":[],"categories_nodes":[],"categories_segments":[],"categories_sizes":[],"default_left":[0,0,0,0,0,0,0,0,0,0,0,0,0,0,0],"id":20,"left_children":[1,3,5,7,9,11,13,-1,-1,-1,-1,-1,-1,-1,-1],"loss_changes":[7.2383E1,4.0495445E1,4.5986668E1,1.2692551E1,2.6373116E1,1.7378735E1,6.2759148E1,0E0,0E0,0E0,0E0,0E0,0E0,0E0,0E0],"parents":[2147483647,0,0,1,1,2,2,3,3,4,4,5,5,6,6],"right_children":[2,4,6,8,10,12,14,-1,-1,-1,-1,-1,-1,-1,-1],"split_conditions":[1E0,2E0,1.0000478E3,3E0,1E0,1.362267E-1,4.550877E0,-6.68986E-2,-2.1680073E-1,1.0653149E-1,-5.1207878E-2,-8.464004E-2,7.20739E-2,1.9391082E-1,6.9844457E-3],"split_indices":[22,16,9,24,11,1,4,0,0,0,0,0,0,0,0],"split_type":[0,0,0,0,0,0,0,0,0,0,0,0,0,0,0],"sum_hessian":[2E2,9.6E1,1.04E2,2.7E1,6.9E1,3.3E1,7.1E1,1E1,1.7E1,1.2E1,5.7E1,2.4E1,9E0,3.5E1,3.6E1],"tree_param":{"num_deleted":"0","num_feature":"26","num_nodes":"15","size_leaf_vector":"1"}},{"base_weights":[-1.7191252E-2,-6.473768E-1,5.206477E-1,-1.6417059E0,-1.9379339E-1,-3.0011925E-1,1.0008042E0,-2.6573262E-1,-8.7342E-2,3.9473306E-2,-9.379894E-2,-6.853839E-2,8.1291005E-2,1.8638407E-1,1.0917345E-2],"categories":[],"categories_nodes":[],"categories_segments":[],"categories_sizes":[],"default_left":[0,0,0,0,0,0,0,0,0,0,0,0,0,0,0],"id":21,"left_children":[1,3,5,7,9,11,13,-1,-1,-1,-1,-1,-1,-1,-1],"loss_changes":[6.846366E1,4.162589E1,4.3256886E1,2.0307343E1,2.883889E1,1.8138397E1,5.2892685E1,0E0,0E0,0E0,0E0,0E0,0E0,0E0,0E0],"parents":[2147483647,0,0,1,1,2,2,3,3,4,4,5,5,6,6],"right_children":[2,4,6,8,10,12,14,-1,-1,-1,-1,-1,-1,-1,-1],"split_conditions":[1E0,2E0,1.0000478E3,2.0781521E-1,6.401282E-2,3.8380894E-1,1.4168026E3,-2.6573262E-1,-8.7342E-2,3.9473306E-2,-9.379894E-2,-6.853839E-2,8.1291005E-2,1.8638407E-1,1.0917345E-2],"split_indices":[23,16,9,2,14,2,9,0,0,0,0,0,0,0,0],"split_type":[0,0,0,0,0,0,0,0,0,0,0,0,0,0,0],"sum_hessian":[2E2,9.2E1,1.08E2,2.8E1,6.4E1,4E1,6.8E1,1.1E1,1.7E1,3.6E1,2.8E1,3E1,1E1,3.4E1,3.4E1],"tree_param":{"num_deleted":"0","num_feature":"26","num_nodes":"15","size_leaf_vector":"1"}},{"base_weights":[-1.6453866E-2,-7.8668946E-1,3.9212906E-1,-1.5959977E0,-1.3980833E-1,-8.6585337E-1,6.796979E-1,-6.405168E-2,-2.250483E-1,3.088433E-2,-1.5166475E-1,-1.07752144E-1,1.96323E-2,1.2067632E-1,-3.6431286E-2],"categories":[],"categories_nodes":[],"categories_segments":[],"categories_sizes":[],"default_left":[0,0,0,0,0,0,0,0,0,0,0,0,0,0,0],"id":22,"left_children":[1,3,5,7,9,11,13,-1,-1,-1,-1,-1,-1,-1,-1],"loss_changes":[6.3564213E1,3.6423702E1,4.8340378E1,1.794432E1,2.5177248E1,5.832262E0,5.986791E1,0E0,0E0,0E0,0E0,0E0,0E0,0E0,0E0],"parents":[2147483647,0,0,1,1,2,2,3,3,4,4,5,5,6,6],"right_children":[2,4,6,8,10,12,14,-1,-1,-1,-1,-1,-1,-1,-1],"split_conditions":[3E0,2.0781521E-1,1E0,1.6584581E-1,1.9E1,2.2213674E-1,5.6149902E1,-6.405168E-2,-2.250483E-1,3.088433E-2,-1.5166475E-1,-1.07752144E-1,1.96323E-2,1.2067632E-1,-3.6431286E-2],"split_indices":[7,2,6,13,25,13,8,0,0,0,0,0,0,0,0],"split_type":[0,0,0,0,0,0,0,0,0,0,0,0,0,0,0],"sum_hessian":[2E2,6.9E1,1.31E2,3E1,3.9E1,2.4E1,1.07E2,1.3E1,1.7E1,3E1,9E0,2E1,4E0,7.1E1,3.6E1],"tree_param":{"num_deleted":"0","num_feature":"26","num_nodes":"15","size_leaf_vector":"1"}},{"base_weights":[-1.6866973E-2,-5.714628E-1,4.9563462E-1,-1.0736243E0,8.620988E-3,1.0620605E0,-1.486751E-1,-1.7759013E-1,-4.554079E-2,1.9821349E-1,-1.7516218E-2,1.7475663E-1,1.4213085E-2,1.3014343E-1,-4.987341E-2],"categories":[],"categories_nodes":[],"categories_segments":[],"categories_sizes":[],"default_left":[0,0,0,0,0,0,0,0,0,0,0,0,0,0,0],"id":23,"left_children":[1,3,5,7,9,11,13,-1,-1,-1,-1,-1,-1,-1,-1],"loss_changes":[5.741372E1,2.8264938E1,3.8478043E1,2.1767517E1,1.7031334E1,3.5066166E1,2.6030262E1,0E0,0E0,0E0,0E0,0E0,0E0,0E0,0E0],"parents":[2147483647,0,0,1,1,2,2,3,3,4,4,5,5,6,6],"right_children":[2,4,6,8,10,12,14,-1,-1,-1,-1,-1,-1,-1,-1],"split_conditions":[1E0,5E0,3.5436237E-1,2.5356126E-1,1.3846875E2,1.6E1,3.1532433E-2,-1.7759013E-1,-4.554079E-2,1.9821349E-1,-1.7516218E-2,1.7475663E-1,1.4213085E-2,1.3014343E-1,-4.987341E-2],"split_indices":[22,7,12,2,18,25,14,0,0,0,0,0,0,0,0],"split_type":[0,0,0,0,0,0,0,0,0,0,0,0,0,0,0],"sum_hessian":[2E2,9.6E1,1.04E2,5.1E1,4.5E1,5.5E1,4.9E1,2.3E1,2.8E1,3E0,4.2E1,3.1E1,2.4E1,9E0,4E1],"tree_param":{"num_deleted":"0","num_feature":"26","num_nodes":"15","size_leaf_vector":"1"}},{"base_weights":[-1.4052011E-2,-5.5796224E-1,4.501471E-1,-1.4418862E0,-1.5501215E-1,-1.0339648E0,6.6189104E-1,-2.3000436E-1,-7.8967646E-2,-5.623239E-2,7.8955546E-2,-3.8837668E-2,-1.8300195E-1,1.0959635E-1,-1.2594836E-2],"categories":[],"categories_nodes":[],"categories_segments":[],"categories_sizes":[],"default_left":[0,0,0,0,0,0,0,0,0,0,0,0,0,0,0],"id":24,"left_children":[1,3,5,7,9,11,13,-1,-1,-1,-1,-1,-1,-1,-1],"loss_changes":[5.1000175E1,3.290097E1,3.4937805E1,1.4414967E1,2.545166E1,6.484193E0,3.2968052E1,0E0,0E0,0E0,0E0,0E0,0E0,0E0,0E0],"parents":[2147483647,0,0,1,1,2,2,3,3,4,4,5,5,6,6],"right_children":[2,4,6,8,10,12,14,-1,-1,-1,-1,-1,-1,-1,-1],"split_conditions":[1E0,2E0,5.7483044E2,2.0781521E-1,1.0776124E-1,6.004689E-2,1.3273777E-1,-2.3000436E-1,-7.8967646E-2,-5.623239E-2,7.8955546E-2,-3.8837668E-2,-1.8300195E-1,1.0959635E-1,-1.2594836E-2],"split_indices":[23,16,9,2,15,14,1,0,0,0,0,0,0,0,0],"split_type":[0,0,0,0,0,0,0,0,0,0,0,0,0,0,0],"sum_hessian":[2E2,9.2E1,1.08E2,2.8E1,6.4E1,1.3E1,9.5E1,1.1E1,1.7E1,4.5E1,1.9E1,8E0,5E0,6.1E1,3.4E1],"tree_param":{"num_deleted":"0","num_feature":"26","num_nodes":"15","size_leaf_vector":"1"}},{"base_weights":[-1.4691955E-2,-1.0314283E0,2.0589359E-1,-1.4562533E0,-6.187557E-1,-6.783516E-1,6.0393584E-1,-2.4097553E-1,-7.170926E-2,3.209362E-2,-8.0346234E-2,-1.9265623E-1,-1.7033195E-3,-1.7289361E-2,1.0366777E-1],"categories":[],"categories_nodes":[],"categories_segments":[],"categories_sizes":[],"default_left":[0,0,0,0,0,0,0,0,0,0,0,0,0,0,0],"id":25,"left_children":[1,3,5,7,9,11,13,-1,-1,-1,-1,-1,-1,-1,-1],"loss_changes":[4.529211E1,5.4102287E0,5.883619E1,1.0253433E1,3.729206E0,4.2891342E1,3.8838398E1,0E0,0E0,0E0,0E0,0E0,0E0,0E0,0E0],"parents":[2147483647,0,0,1,1,2,2,3,3,4,4,5,5,6,6],"right_children":[2,4,6,8,10,12,14,-1,-1,-1,-1,-1,-1,-1,-1],"split_conditions":[1E0,2.738453E-1,2E0,3E0,3.1299657E-1,2.0781521E-1,1.0000478E3,-2.4097553E-1,-7.170926E-2,3.209362E-2,-8.0346234E-2,-1.9265623E-1,-1.7033195E-3,-1.7289361E-2,1.0366777E-1],"split_indices":[6,0,16,19,0,2,9,0,0,0,0,0,0,0,0],"split_type":[0,0,0,0,0,0,0,0,0,0,0,0,0,0,0],"sum_hessian":[2E2,3.5E1,1.65E2,1.6E1,1.9E1,5.1E1,1.14E2,6E0,1E1,3E0,1.6E1,1.7E1,3.4E1,4.1E1,7.3E1],"tree_param":{"num_deleted":"0","num_feature":"26","num_nodes":"15","size_leaf_vector":"1"}},{"base_weights":[-1.5555719E-2,-4.9793696E-1,4.302208E-1,-9.237925E-1,-5.7103117E-3,6.7454E-2,1.2556746E0,-1.4813916E-1,-4.304762E-2,1.7348509E-1,-1.6749019E-2,-9.018547E-2,4.6853583E-2,-3.8676374E-2,1.6495745E-1],"categories":[],"categories_nodes":[],"categories_segments":[],"categories_sizes":[],"default_left":[0,0,0,0,0,0,0,0,0,0,0,0,0,0,0],"id":26,"left_children":[1,3,5,7,9,11,13,-1,-1,-1,-1,-1,-1,-1,-1],"loss_changes":[4.3436104E1,2.0327612E1,3.1357262E1,1.3666084E1,1.32436075E1,2.919169E1,2.1340591E1,0E0,0E0,0E0,0E0,0E0,0E0,0E0,0E0],"parents":[2147483647,0,0,1,1,2,2,3,3,4,4,5,5,6,6],"right_children":[2,4,6,8,10,12,14,-1,-1,-1,-1,-1,-1,-1,-1],"split_conditions":[1E0,5E0,6E0,2.5356126E-1,1.3846875E2,1.0935984E-1,7.354949E2,-1.4813916E-1,-4.304762E-2,1.7348509E-1,-1.6749019E-2,-9.018547E-2,4.6853583E-2,-3.8676374E-2,1.6495745E-1],"split_indices":[22,7,7,2,18,2,9,0,0,0,0,0,0,0,0],"split_type":[0,0,0,0,0,0,0,0,0,0,0,0,0,0,0],"sum_hessian":[2E2,9.6E1,1.04E2,5.1E1,4.5E1,7.3E1,3.1E1,2.3E1,2.8E1,3E0,4.2E1,2.1E1,5.2E1,6E0,2.5E1],"tree_param":{"num_deleted":"0","num_feature":"26","num_nodes":"15","size_leaf_vector":"1"}},{"base_weights":[-1.3759087E-2,-4.884157E-1,3.9134938E-1,-1.0140991E0,4.3224217E-3,-2.9395732E-1,7.4760365E-1,-3.7012786E-2,-1.5621519E-1,-1.0454913E-1,3.7305906E-2,-1.3904192E-1,2.6557965E-2,-5.012054E-2,1.0576818E-1],"categories":[],"categories_nodes":[],"categories_segments":[],"categories_sizes":[],"default_left":[0,0,0,0,0,0,0,0,0,0,0,0,0,0,0],"id":27,"left_children":[1,3,5,7,9,11,13,-1,-1,-1,-1,-1,-1,-1,-1],"loss_changes":[3.8840916E1,2.4093641E1,2.6831398E1,1.5303661E1,1.9358166E1,2.368268E1,2.841056E1,0E0,0E0,0E0,0E0,0E0,0E0,0E0,0E0],"parents":[2147483647,0,0,1,1,2,2,3,3,4,4,5,5,6,6],"right_children":[2,4,6,8,10,12,14,-1,-1,-1,-1,-1,-1,-1,-1],"split_conditions":[1E0,2.0781521E-1,3E0,8.4188685E-2,1E0,2.3792733E-1,1E0,-3.7012786E-2,-1.5621519E-1,-1.0454913E-1,3.7305906E-2,-1.3904192E-1,2.6557965E-2,-5.012054E-2,1.0576818E-1],"split_indices":[23,2,7,2,6,0,6,0,0,0,0,0,0,0,0],"split_type":[0,0,0,0,0,0,0,0,0,0,0,0,0,0,0],"sum_hessian":[2E2,9.2E1,1.08E2,4.4E1,4.8E1,3.7E1,7.1E1,2.1E1,2.3E1,1.2E1,3.6E1,1.2E1,2.5E1,1.4E1,5.7E1],"tree_param":{"num_deleted":"0","num_feature":"26","num_nodes":"15","size_leaf_vector":"1"}},{"base_weights":[-1.3961778E-2,-6.569204E-1,2.578092E-1,1.5461468E0,-8.8531095E-1,-8.1492835E-1,5.1675564E-1,2.0761573E-1,-5.519533E-2,-1.2755786E-1,-1.222886E-3,-1.1031617E-2,-1.0912573E-1,-1.5088804E-2,8.887054E-2],"categories":[],"categories_nodes":[],"categories_segments":[],"categories_sizes":[],"default_left":[0,0,0,0,0,0,0,0,0,0,0,0,0,0,0],"id":28,"left_children":[1,3,5,7,9,11,13,-1,-1,-1,-1,-1,-1,-1,-1],"loss_changes":[3.5291595E1,3.1558409E1,3.98661E1,7.818033E0,1.8724861E1,5.3313503E0,2.8692032E1,0E0,0E0,0E0,0E0,0E0,0E0,0E0,0E0],"parents":[2147483647,0,0,1,1,2,2,3,3,4,4,5,5,6,6],"right_children":[2,4,6,8,10,12,14,-1,-1,-1,-1,-1,-1,-1,-1],"split_conditions":[2E0,2.3228133E0,1E0,3.1544328E-1,1.9997892E1,1.0796389E1,1.0000478E3,2.0761573E-1,-5.519533E-2,-1.2755786E-1,-1.222886E-3,-1.1031617E-2,-1.0912573E-1,-1.5088804E-2,8.887054E-2],"split_indices":[16,4,6,0,10,10,9,0,0,0,0,0,0,0,0],"split_type":[0,0,0,0,0,0,0,0,0,0,0,0,0,0,0],"sum_hessian":[2E2,5.9E1,1.41E2,5E0,5.4E1,2.7E1,1.14E2,4E0,1E0,3.7E1,1.7E1,8E0,1.9E1,4.1E1,7.3E1],"tree_param":{"num_deleted":"0","num_feature":"26","num_nodes":"15","size_leaf_vector":"1"}},{"base_weights":[-1.2678872E-2,4.0940058E-1,-4.0247914E-1,-3.5153362E-1,9.05452E-1,-8.1432337E-1,3.4509677E-1,-7.6890506E-2,9.35734E-2,1.4195314E-1,-2.515325E-2,-1.0321637E-1,9.964406E-3,1.6423889E-1,-1.1414521E-2],"categories":[],"categories_nodes":[],"categories_segments":[],"categories_sizes":[],"default_left":[0,0,0,0,0,0,0,0,0,0,0,0,0,0,0],"id":29,"left_children":[1,3,5,7,9,11,13,-1,-1,-1,-1,-1,-1,-1,-1],"loss_changes":[3.3234642E1,3.693216E1,3.2608925E1,2.1672972E1,3.544919E1,1.36415825E1,2.2826767E1,0E0,0E0,0E0,0E0,0E0,0E0,0E0,0E0],"parents":[2147483647,0,0,1,1,2,2,3,3,4,4,5,5,6,6],"right_children":[2,4,6,8,10,12,14,-1,-1,-1,-1,-1,-1,-1,-1],"split_conditions":[4.613447E0,1.041132E3,6.666049E0,4.125722E0,1.5907358E3,5E0,2E0,-7.6890506E-2,9.35734E-2,1.4195314E-1,-2.515325E-2,-1.0321637E-1,9.964406E-3,1.6423889E-1,-1.1414521E-2],"split_indices":[4,9,4,4,9,19,24,0,0,0,0,0,0,0,0],"split_type":[0,0,0,0,0,0,0,0,0,0,0,0,0,0,0],"sum_hessian":[2E2,9.6E1,1.04E2,3.8E1,5.8E1,6.7E1,3.7E1,2.9E1,9E0,4E1,1.8E1,5.4E1,1.3E1,9E0,2.8E1],"tree_param":{"num_deleted":"0","num_feature":"26","num_nodes":"15","size_leaf_vector":"1"}},{"base_weights":[-1.045032E-2,-4.110186E-1,3.59698E-1,-5.5862878E-2,-8.747734E-1,9.8006433E-1,2.182478E-2,-3.8179427E-2,7.143206E-2,-1.10541694E-1,2.436384E-2,1.5769176E-1,-3.947897E-2,-3.3252753E-2,7.449871E-2],"categories":[],"categories_nodes":[],"categories_segments":[],"categories_sizes":[],"default_left":[0,0,0,0,0,0,0,0,0,0,0,0,0,0,0],"id":30,"left_children":[1,3,5,7,9,11,13,-1,-1,-1,-1,-1,-1,-1,-1],"loss_changes":[2.9950047E1,1.5927534E1,2.1987156E1,1.4330235E1,1.1103409E1,3.098423E1,1.7929272E1,0E0,0E0,0E0,0E0,0E0,0E0,0E0,0E0],"parents":[2147483647,0,0,1,1,2,2,3,3,4,4,5,5,6,6],"right_children":[2,4,6,8,10,12,14,-1,-1,-1,-1,-1,-1,-1,-1],"split_conditions":[1E0,3E0,9.011168E0,5E0,2.2701723E1,1.7291697E3,6E0,-3.8179427E-2,7.143206E-2,-1.10541694E-1,2.436384E-2,1.5769176E-1,-3.947897E-2,-3.3252753E-2,7.449871E-2],"split_indices":[22,11,5,16,10,9,7,0,0,0,0,0,0,0,0],"split_type":[0,0,0,0,0,0,0,0,0,0,0,0,0,0,0],"sum_hessian":[2E2,9.6E1,1.04E2,5.5E1,4.1E1,3.6E1,6.8E1,3.9E1,1.6E1,3.4E1,7E0,2.5E1,1.1E1,4.6E1,2.2E1],"tree_param":{"num_deleted":"0","num_feature":"26","num_nodes":"15","size_leaf_vector":"1"}},{"base_weights":[-8.875358E-3,-4.151599E-1,3.378525E-1,-8.737319E-1,1.4450268E-2,-8.093212E-1,5.016294E-1,-4.6218242E-2,-1.6660188E-1,-8.383669E-2,3.1369817E-2,-2.4558319E-2,-1.3379759E-1,9.892642E-2,3.322014E-3],"categories":[],"categories_nodes":[],"categories_segments":[],"categories_sizes":[],"default_left":[0,0,0,0,0,0,0,0,0,0,0,0,0,0,0],"id":31,"left_children":[1,3,5,7,9,11,13,-1,-1,-1,-1,-1,-1,-1,-1],"loss_changes":[2.845517E1,1.8334293E1,2.0884958E1,1.3902931E1,1.2767978E1,3.8437338E0,2.1894745E1,0E0,0E0,0E0,0E0,0E0,0E0,0E0,0E0],"parents":[2147483647,0,0,1,1,2,2,3,3,4,4,5,5,6,6],"right_children":[2,4,6,8,10,12,14,-1,-1,-1,-1,-1,-1,-1,-1],"split_conditions":[1E0,2.0781521E-1,5.7483044E2,1.3891912E3,3.775496E-2,3E0,4E0,-4.6218242E-2,-1.6660188E-1,-8.383669E-2,3.1369817E-2,-2.4558319E-2,-1.3379759E-1,9.892642E-2,3.322014E-3],"split_indices":[23,2,9,9,15,11,24,0,0,0,0,0,0,0,0],"split_type":[0,0,0,0,0,0,0,0,0,0,0,0,0,0,0],"sum_hessian":[2E2,9.2E1,1.08E2,4.4E1,4.8E1,1.3E1,9.5E1,3E1,1.4E1,1.2E1,3.6E1,7E0,6E0,4.6E1,4.9E1],"tree_param":{"num_deleted":"0","num_feature":"26","num_nodes":"15","size_leaf_vector":"1"}},{"base_weights":[-9.586966E-3,-5.121781E-1,2.5701126E-1,-7.1583223E-1,9.476814E-1,-7.944274E-1,3.9860106E-1,-9.319233E-2,3.70765E-2,1.2072726E-2,2.5613472E-1,-9.5129736E-2,2.0244153E-2,7.589096E-2,-1.5417568E-2],"categories":[],"categories_nodes":[],"categories_segments":[],"categories_sizes":[],"default_left":[0,0,0,0,0,0,0,0,0,0,0,0,0,0,0],"id":32,"left_children":[1,3,5,7,9,11,13,-1,-1,-1,-1,-1,-1,-1,-1],"loss_changes":[2.7063606E1,2.1489832E1,1.9967896E1,1.4903374E1,1.1700626E1,2.694642E0,2.3419912E1,0E0,0E0,0E0,0E0,0E0,0E0,0E0,0E0],"parents":[2147483647,0,0,1,1,2,2,3,3,4,4,5,5,6,6],"right_children":[2,4,6,8,10,12,14,-1,-1,-1,-1,-1,-1,-1,-1],"split_conditions":[3E0,4.536212E-1,6.76644E2,2.3695354E1,4.622349E-2,9.3319666E-1,1.4741426E3,-9.319233E-2,3.70765E-2,1.2072726E-2,2.5613472E-1,-9.5129736E-2,2.0244153E-2,7.589096E-2,-1.5417568E-2],"split_indices":[7,0,9,10,14,17,9,0,0,0,0,0,0,0,0],"split_type":[0,0,0,0,0,0,0,0,0,0,0,0,0,0,0],"sum_hessian":[2E2,6.9E1,1.31E2,6.1E1,8E0,1.5E1,1.16E2,5.1E1,1E1,6E0,2E0,1.3E1,2E0,7E1,4.6E1],"tree_param":{"num_deleted":"0","num_feature":"26","num_nodes":"15","size_leaf_vector":"1"}},{"base_weights":[-7.6450044E-3,-5.404573E-1,2.1754079E-1,1.3206515E0,-7.336608E-1,-6.892439E-1,4.364315E-1,1.769493E-1,-4.6177816E-2,-1.4083241E-1,-3.3846848E-2,-3.4266543E-2,-1.1937139E-1,2.0492665E-1,3.2885097E-2],"categories":[],"categories_nodes":[],"categories_segments":[],"categories_sizes":[],"default_left":[0,0,0,0,0,0,0,0,0,0,0,0,0,0,0],"id":33,"left_children":[1,3,5,7,9,11,13,-1,-1,-1,-1,-1,-1,-1,-1],"loss_changes":[2.4233904E1,2.254328E1,2.8485926E1,5.6172857E0,1.4187523E1,4.486432E0,1.9279705E1,0E0,0E0,0E0,0E0,0E0,0E0,0E0,0E0],"parents":[2147483647,0,0,1,1,2,2,3,3,4,4,5,5,6,6],"right_children":[2,4,6,8,10,12,14,-1,-1,-1,-1,-1,-1,-1,-1],"split_conditions":[2E0,2.3228133E0,1E0,3.1544328E-1,2.2536449E-1,3.7867014E2,2.1954032E-2,1.769493E-1,-4.6177816E-2,-1.4083241E-1,-3.3846848E-2,-3.4266543E-2,-1.1937139E-1,2.0492665E-1,3.2885097E-2],"split_indices":[16,4,6,0,2,18,14,0,0,0,0,0,0,0,0],"split_type":[0,0,0,0,0,0,0,0,0,0,0,0,0,0,0],"sum_hessian":[2E2,5.9E1,1.41E2,5E0,5.4E1,2.7E1,1.14E2,4E0,1E0,1.9E1,3.5E1,1.7E1,1E1,6E0,1.08E2],"tree_param":{"num_deleted":"0","num_feature":"26","num_nodes":"15","size_leaf_vector":"1"}},{"base_weights":[-6.6800425E-3,-3.5455102E-1,3.1475008E-1,-1.7890695E-1,-1.0661999E0,8.265272E-1,-3.9554097E-2,-5.801601E-2,1.3715451E-2,-1.8464513E-1,-5.640492E-2,-1.1308911E-2,1.5075745E-1,4.799514E-2,-6.651795E-2],"categories":[],"categories_nodes":[],"categories_segments":[],"categories_sizes":[],"default_left":[0,0,0,0,0,0,0,0,0,0,0,0,0,0,0],"id":34,"left_children":[1,3,5,7,9,11,13,-1,-1,-1,-1,-1,-1,-1,-1],"loss_changes":[2.2586655E1,1.19339485E1,1.9071793E1,1.0098402E1,6.4027824E0,2.7687181E1,2.079525E1,0E0,0E0,0E0,0E0,0E0,0E0,0E0,0E0],"parents":[2147483647,0,0,1,1,2,2,3,3,4,4,5,5,6,6],"right_children":[2,4,6,8,10,12,14,-1,-1,-1,-1,-1,-1,-1,-1],"split_conditions":[1E0,6.414693E1,1.2E1,1.2461898E1,6.936074E1,1.7890891E-1,1.8151452E-1,-5.801601E-2,1.3715451E-2,-1.8464513E-1,-5.640492E-2,-1.1308911E-2,1.5075745E-1,4.799514E-2,-6.651795E-2],"split_indices":[22,8,25,10,8,13,13,0,0,0,0,0,0,0,0],"split_type":[0,0,0,0,0,0,0,0,0,0,0,0,0,0,0],"sum_hessian":[2E2,9.6E1,1.04E2,7.8E1,1.8E1,4.2E1,6.2E1,3.4E1,4.4E1,6E0,1.2E1,1.8E1,2.4E1,3.4E1,2.8E1],"tree_param":{"num_deleted":"0","num_feature":"26","num_nodes":"15","size_leaf_vector":"1"}},{"base_weights":[-6.8299877E-3,-8.892343E-1,1.1218425E-1,-3.6870214E-1,-1.1264565E0,5.0279486E-1,-2.4222094E-1,-3.1819982E-3,-7.8184985E-2,-1.9519448E-2,-1.3263482E-1,1.07717745E-1,7.918356E-3,-6.286987E-2,5.2622657E-2],"categories":[],"categories_nodes":[],"categories_segments":[],"categories_sizes":[],"default_left":[0,0,0,0,0,0,0,0,0,0,0,0,0,0,0],"id":35,"left_children":[1,3,5,7,9,11,13,-1,-1,-1,-1,-1,-1,-1,-1],"loss_changes":[2.1208513E1,2.548235E0,2.4763117E1,1.2277606E0,2.7195282E0,2.0596476E1,2.82477E1,0E0,0E0,0E0,0E0,0E0,0E0,0E0,0E0],"parents":[2147483647,0,0,1,1,2,2,3,3,4,4,5,5,6,6],"right_children":[2,4,6,8,10,12,14,-1,-1,-1,-1,-1,-1,-1,-1],"split_conditions":[6.054108E2,1.2E1,4.613447E0,3.2398495E-1,6.367354E-2,2.9591286E-1,6.666049E0,-3.1819982E-3,-7.8184985E-2,-1.9519448E-2,-1.3263482E-1,1.07717745E-1,7.918356E-3,-6.286987E-2,5.2622657E-2],"split_indices":[9,25,4,0,2,12,4,0,0,0,0,0,0,0,0],"split_type":[0,0,0,0,0,0,0,0,0,0,0,0,0,0,0],"sum_hessian":[2E2,2.3E1,1.77E2,8E0,1.5E1,8.4E1,9.3E1,5E0,3E0,3E0,1.2E1,3.5E1,4.9E1,6.2E1,3.1E1],"tree_param":{"num_deleted":"0","num_feature":"26","num_nodes":"15","size_leaf_vector":"1"}},{"base_weights":[-6.7840405E-3,-3.5116628E-1,2.871089E-1,3.1889874E-2,-7.267508E-1,-2.6630417E-1,5.415402E-1,-7.236388E-2,4.8414413E-2,-3.8520873E-2,-1.3068128E-1,5.7637867E-2,-1.0062676E-1,9.0391256E-2,-6.4426586E-3],"categories":[],"categories_nodes":[],"categories_segments":[],"categories_sizes":[],"default_left":[0,0,0,0,0,0,0,0,0,0,0,0,0,0,0],"id":36,"left_children":[1,3,5,7,9,11,13,-1,-1,-1,-1,-1,-1,-1,-1],"loss_changes":[2.0444336E1,1.3403085E1,1.5492026E1,1.6409824E1,8.808033E0,2.2404396E1,1.6527155E1,0E0,0E0,0E0,0E0,0E0,0E0,0E0,0E0],"parents":[2147483647,0,0,1,1,2,2,3,3,4,4,5,5,6,6],"right_children":[2,4,6,8,10,12,14,-1,-1,-1,-1,-1,-1,-1,-1],"split_conditions":[1E0,3E0,1.0483019E1,1.041132E3,4E0,4.4385686E0,1.3183631E-1,-7.236388E-2,4.8414413E-2,-3.8520873E-2,-1.3068128E-1,5.7637867E-2,-1.0062676E-1,9.0391256E-2,-6.4426586E-3],"split_indices":[23,21,10,9,11,4,1,0,0,0,0,0,0,0,0],"split_type":[0,0,0,0,0,0,0,0,0,0,0,0,0,0,0],"sum_hessian":[2E2,9.2E1,1.08E2,4.6E1,4.6E1,3.4E1,7.4E1,1.7E1,2.9E1,3E1,1.6E1,1.6E1,1.8E1,4.6E1,2.8E1],"tree_param":{"num_deleted":"0","num_feature":"26","num_nodes":"15","size_leaf_vector":"1"}},{"base_weights":[-6.862697E-3,-4.127061E-1,2.084093E-1,-5.925693E-1,8.7220776E-1,1.164278E0,8.513437E-2,2.3362326E-2,-8.384093E-2,1.6108582E-2,2.2407563E-1,-2.6547527E-2,1.5438394E-1,-8.932139E-2,2.3628425E-2],"categories":[],"categories_nodes":[],"categories_segments":[],"categories_sizes":[],"default_left":[0,0,0,0,0,0,0,0,0,0,0,0,0,0,0],"id":37,"left_children":[1,3,5,7,9,11,13,-1,-1,-1,-1,-1,-1,-1,-1],"loss_changes":[1.7646723E1,1.6694454E1,1.5455053E1,1.2788769E1,8.39789E0,8.550035E0,1.7660564E1,0E0,0E0,0E0,0E0,0E0,0E0,0E0,0E0],"parents":[2147483647,0,0,1,1,2,2,3,3,4,4,5,5,6,6],"right_children":[2,4,6,8,10,12,14,-1,-1,-1,-1,-1,-1,-1,-1],"split_conditions":[3E0,4.536212E-1,2.7156858E-2,1.3195832E-1,4.622349E-2,2E0,3.1675633E-2,2.3362326E-2,-8.384093E-2,1.6108582E-2,2.2407563E-1,-2.6547527E-2,1.5438394E-1,-8.932139E-2,2.3628425E-2],"split_indices":[7,0,14,13,14,16,1,0,0,0,0,0,0,0,0],"split_type":[0,0,0,0,0,0,0,0,0,0,0,0,0,0,0],"sum_hessian":[2E2,6.9E1,1.31E2,6.1E1,8E0,1.4E1,1.17E2,1.4E1,4.7E1,6E0,2E0,3E0,1.1E1,1.5E1,1.02E2],"tree_param":{"num_deleted":"0","num_feature":"26","num_nodes":"15","size_leaf_vector":"1"}},{"base_weights":[-4.9731033E-3,-6.244933E-1,1.2941062E-1,-1.4459021E-1,-8.29867E-1,3.31535E-1,-4.949085E-1,-9.052623E-2,9.807043E-3,-1.2773687E-1,-4.4637464E-2,-2.4563922E-2,8.118912E-2,-1.0087782E-1,2.8989455E-2],"categories":[],"categories_nodes":[],"categories_segments":[],"categories_sizes":[],"default_left":[0,0,0,0,0,0,0,0,0,0,0,0,0,0,0],"id":38,"left_children":[1,3,5,7,9,11,13,-1,-1,-1,-1,-1,-1,-1,-1],"loss_changes":[1.6814756E1,3.4281502E0,2.1111643E1,2.3038018E0,3.720152E0,3.5132828E1,1.6827187E1,0E0,0E0,0E0,0E0,0E0,0E0,0E0,0E0],"parents":[2147483647,0,0,1,1,2,2,3,3,4,4,5,5,6,6],"right_children":[2,4,6,8,10,12,14,-1,-1,-1,-1,-1,-1,-1,-1],"split_conditions":[1E0,1.0796389E1,1.6001506E3,7.506058E2,2.738453E-1,1.0000478E3,1.6032148E1,-9.052623E-2,9.807043E-3,-1.2773687E-1,-4.4637464E-2,-2.4563922E-2,8.118912E-2,-1.0087782E-1,2.8989455E-2],"split_indices":[6,10,9,9,0,9,10,0,0,0,0,0,0,0,0],"split_type":[0,0,0,0,0,0,0,0,0,0,0,0,0,0,0],"sum_hessian":[2E2,3.5E1,1.65E2,1.1E1,2.4E1,1.25E2,4E1,2E0,9E0,1E1,1.4E1,5.7E1,6.8E1,2.4E1,1.6E1],"tree_param":{"num_deleted":"0","num_feature":"26","num_nodes":"15","size_leaf_vector":"1"}},{"base_weights":[-5.810467E-3,-4.3289533E-1,1.7468885E-1,1.0704141E0,-5.890219E-1,-5.4158694E-1,3.4756738E-1,1.4226921E-1,-3.4548808E-2,-2.5428582E-2,-1.1188668E-1,2.3728583E-3,-7.6889955E-2,1.7767183E-2,1.0995918E-1],"categories":[],"categories_nodes":[],"categories_segments":[],"categories_sizes":[],"default_left":[0,0,0,0,0,0,0,0,0,0,0,0,0,0,0],"id":39,"left_children":[1,3,5,7,9,11,13,-1,-1,-1,-1,-1,-1,-1,-1],"loss_changes":[1.55704155E1,1.4712889E1,1.7771914E1,3.48427E0,9.47019E0,3.6163397E0,1.4497677E1,0E0,0E0,0E0,0E0,0E0,0E0,0E0,0E0],"parents":[2147483647,0,0,1,1,2,2,3,3,4,4,5,5,6,6],"right_children":[2,4,6,8,10,12,14,-1,-1,-1,-1,-1,-1,-1,-1],"split_conditions":[2E0,2.3228133E0,1E0,3.1544328E-1,5.6027233E1,1.0796389E1,4.2639637E-1,1.4226921E-1,-3.4548808E-2,-2.5428582E-2,-1.1188668E-1,2.3728583E-3,-7.6889955E-2,1.7767183E-2,1.0995918E-1],"split_indices":[16,4,6,0,8,10,0,0,0,0,0,0,0,0,0],"split_type":[0,0,0,0,0,0,0,0,0,0,0,0,0,0,0],"sum_hessian":[2E2,5.9E1,1.41E2,5E0,5.4E1,2.7E1,1.14E2,4E0,1E0,3.4E1,2E1,8E0,1.9E1,9.4E1,2E1],"tree_param":{"num_deleted":"0","num_feature":"26","num_nodes":"15","size_leaf_vector":"1"}},{"base_weights":[-5.1117702E-3,-3.002017E-1,2.517731E-1,-7.4904096E-1,-5.6461442E-2,1.7499177E0,1.4649089E-1,8.210551E-3,-1.365786E-1,-4.7695562E-2,3.0385599E-2,1.998787E-2,1.9749445E-1,5.038458E-2,-2.6603017E-2],"categories":[],"categories_nodes":[],"categories_segments":[],"categories_sizes":[],"default_left":[0,0,0,0,0,0,0,0,0,0,0,0,0,0,0],"id":40,"left_children":[1,3,5,7,9,11,13,-1,-1,-1,-1,-1,-1,-1,-1],"loss_changes":[1.5312215E1,1.0241325E1,1.6778275E1,1.7028118E1,9.538631E0,2.046852E0,1.5170513E1,0E0,0E0,0E0,0E0,0E0,0E0,0E0,0E0],"parents":[2147483647,0,0,1,1,2,2,3,3,4,4,5,5,6,6],"right_children":[2,4,6,8,10,12,14,-1,-1,-1,-1,-1,-1,-1,-1],"split_conditions":[2.3187605E-1,3E0,2.502329E-1,1.6584581E-1,1E0,2.5592551E0,4.613447E0,8.210551E-3,-1.365786E-1,-4.7695562E-2,3.0385599E-2,1.998787E-2,1.9749445E-1,5.038458E-2,-2.6603017E-2],"split_indices":[2,7,2,13,23,4,4,0,0,0,0,0,0,0,0],"split_type":[0,0,0,0,0,0,0,0,0,0,0,0,0,0,0],"sum_hessian":[2E2,9.3E1,1.07E2,3.2E1,6.1E1,6E0,1.01E2,1.4E1,1.8E1,2.8E1,3.3E1,1E0,5E0,5.4E1,4.7E1],"tree_param":{"num_deleted":"0","num_feature":"26","num_nodes":"15","size_leaf_vector":"1"}},{"base_weights":[-4.1249925E-3,-2.8282937E-1,2.5338405E-1,-7.302733E-2,-7.0670766E-1,7.251376E-1,-3.257475E-3,-3.917113E-2,2.99413E-2,-1.5291753E-1,-3.183866E-2,1.8248086E-1,2.502665E-2,5.1491078E-2,-3.0937377E-2],"categories":[],"categories_nodes":[],"categories_segments":[],"categories_sizes":[],"default_left":[0,0,0,0,0,0,0,0,0,0,0,0,0,0,0],"id":41,"left_children":[1,3,5,7,9,11,13,-1,-1,-1,-1,-1,-1,-1,-1],"loss_changes":[1.4497212E1,8.574652E0,1.2714874E1,7.9508743E0,9.73334E0,1.8864786E1,1.1104062E1,0E0,0E0,0E0,0E0,0E0,0E0,0E0,0E0],"parents":[2147483647,0,0,1,1,2,2,3,3,4,4,5,5,6,6],"right_children":[2,4,6,8,10,12,14,-1,-1,-1,-1,-1,-1,-1,-1],"split_conditions":[1E0,1.4168026E3,9.011168E0,9.7649054E2,1.7948969E-1,2.9591286E-1,4.1546726E1,-3.917113E-2,2.99413E-2,-1.5291753E-1,-3.183866E-2,1.8248086E-1,2.502665E-2,5.1491078E-2,-3.0937377E-2],"split_indices":[22,9,5,9,2,12,3,0,0,0,0,0,0,0,0],"split_type":[0,0,0,0,0,0,0,0,0,0,0,0,0,0,0],"sum_hessian":[2E2,9.6E1,1.04E2,6.5E1,3.1E1,3.6E1,6.8E1,3.5E1,3E1,9E0,2.2E1,1E1,2.6E1,2.5E1,4.3E1],"tree_param":{"num_deleted":"0","num_feature":"26","num_nodes":"15","size_leaf_vector":"1"}},{"base_weights":[-3.5429143E-3,-3.5147345E-1,1.8099254E-1,-5.053131E-1,7.473632E-1,3.9502627E-1,-2.27745E-1,-6.635123E-2,2.8847521E-2,1.6915403E-2,1.847397E-1,-5.5273302E-2,6.163908E-2,-7.011615E-2,3.6923464E-2],"categories":[],"categories_nodes":[],"categories_segments":[],"categories_sizes":[],"default_left":[0,0,0,0,0,0,0,0,0,0,0,0,0,0,0],"id":42,"left_children":[1,3,5,7,9,11,13,-1,-1,-1,-1,-1,-1,-1,-1],"loss_changes":[1.2968924E1,1.2210774E1,1.1637803E1,7.9771605E0,5.4119515E0,1.8593327E1,1.3259413E1,0E0,0E0,0E0,0E0,0E0,0E0,0E0,0E0],"parents":[2147483647,0,0,1,1,2,2,3,3,4,4,5,5,6,6],"right_children":[2,4,6,8,10,12,14,-1,-1,-1,-1,-1,-1,-1,-1],"split_conditions":[3E0,4.536212E-1,5.6027233E1,2.3695354E1,4.622349E-2,1E0,2.55587E-1,-6.635123E-2,2.8847521E-2,1.6915403E-2,1.847397E-1,-5.5273302E-2,6.163908E-2,-7.011615E-2,3.6923464E-2],"split_indices":[7,0,8,10,14,6,0,0,0,0,0,0,0,0,0],"split_type":[0,0,0,0,0,0,0,0,0,0,0,0,0,0,0],"sum_hessian":[2E2,6.9E1,1.31E2,6.1E1,8E0,8.6E1,4.5E1,5.1E1,1E1,6E0,2E0,1.6E1,7E1,2.5E1,2E1],"tree_param":{"num_deleted":"0","num_feature":"26","num_nodes":"15","size_leaf_vector":"1"}},{"base_weights":[-2.5058337E-3,-6.7029566E-1,8.7547325E-2,-1.2743919E-1,-8.064453E-1,2.6546997E-1,-3.998571E-1,-5.431369E-2,2.1619393E-2,-1.663479E-2,-9.660481E-2,-4.1362043E-2,4.457494E-2,3.379597E-2,-7.4546956E-2],"categories":[],"categories_nodes":[],"categories_segments":[],"categories_sizes":[],"default_left":[0,0,0,0,0,0,0,0,0,0,0,0,0,0,0],"id":43,"left_children":[1,3,5,7,9,11,13,-1,-1,-1,-1,-1,-1,-1,-1],"loss_changes":[1.2146136E1,1.6710606E0,1.554236E1,9.7450787E-1,1.780365E0,1.622218E1,1.2491877E1,0E0,0E0,0E0,0E0,0E0,0E0,0E0,0E0],"parents":[2147483647,0,0,1,1,2,2,3,3,4,4,5,5,6,6],"right_children":[2,4,6,8,10,12,14,-1,-1,-1,-1,-1,-1,-1,-1],"split_conditions":[6.054108E2,6.367354E-2,1.5907358E3,5.565338E-2,3.33984E1,1E0,1.4E1,-5.431369E-2,2.1619393E-2,-1.663479E-2,-9.660481E-2,-4.1362043E-2,4.457494E-2,3.379597E-2,-7.4546956E-2],"split_indices":[9,2,9,14,3,6,25,0,0,0,0,0,0,0,0],"split_type":[0,0,0,0,0,0,0,0,0,0,0,0,0,0,0],"sum_hessian":[2E2,2.3E1,1.77E2,5E0,1.8E1,1.3E2,4.7E1,2E0,3E0,4E0,1.4E1,2.7E1,1.03E2,1.5E1,3.2E1],"tree_param":{"num_deleted":"0","num_feature":"26","num_nodes":"15","size_leaf_vector":"1"}},{"base_weights":[-3.1679543E-3,-2.5858995E-1,2.1917312E-1,-5.446281E-1,2.687633E-2,1.5262369E0,1.273239E-1,-3.2956846E-2,-1.307392E-1,1.5562973E-2,-1.1115288E-1,2.1812439E-2,1.7079017E-1,4.2075958E-2,-2.1155708E-2],"categories":[],"categories_nodes":[],"categories_segments":[],"categories_sizes":[],"default_left":[0,0,0,0,0,0,0,0,0,0,0,0,0,0,0],"id":44,"left_children":[1,3,5,7,9,11,13,-1,-1,-1,-1,-1,-1,-1,-1],"loss_changes":[1.1471626E1,7.6901355E0,1.2771376E1,7.2789907E0,7.2085156E0,1.2909279E0,1.0231871E1,0E0,0E0,0E0,0E0,0E0,0E0,0E0,0E0],"parents":[2147483647,0,0,1,1,2,2,3,3,4,4,5,5,6,6],"right_children":[2,4,6,8,10,12,14,-1,-1,-1,-1,-1,-1,-1,-1],"split_conditions":[2.3187605E-1,1E0,2.502329E-1,2.1003169E-1,7.28394E1,2.5592551E0,4.613447E0,-3.2956846E-2,-1.307392E-1,1.5562973E-2,-1.1115288E-1,2.1812439E-2,1.7079017E-1,4.2075958E-2,-2.1155708E-2],"split_indices":[2,23,2,13,3,4,4,0,0,0,0,0,0,0,0],"split_type":[0,0,0,0,0,0,0,0,0,0,0,0,0,0,0],"sum_hessian":[2E2,9.3E1,1.07E2,4.6E1,4.7E1,6E0,1.01E2,3.7E1,9E0,4.3E1,4E0,1E0,5E0,5.4E1,4.7E1],"tree_param":{"num_deleted":"0","num_feature":"26","num_nodes":"15","size_leaf_vector":"1"}},{"base_weights":[-3.078565E-3,-2.3937747E-1,2.1524593E-1,-1.0551294E-1,-7.8337324E-1,-2.4210335E-1,4.282269E-1,-4.078561E-2,1.31987585E-2,-1.4202009E-1,-4.544919E-2,4.058669E-2,-5.2900206E-2,8.242125E-2,-3.0406347E-2],"categories":[],"categories_nodes":[],"categories_segments":[],"categories_sizes":[],"default_left":[0,0,0,0,0,0,0,0,0,0,0,0,0,0,0],"id":45,"left_children":[1,3,5,7,9,11,13,-1,-1,-1,-1,-1,-1,-1,-1],"loss_changes":[1.0421082E1,6.981053E0,1.0331377E1,5.7265577E0,3.3339033E0,6.535367E0,2.1128914E1,0E0,0E0,0E0,0E0,0E0,0E0,0E0,0E0],"parents":[2147483647,0,0,1,1,2,2,3,3,4,4,5,5,6,6],"right_children":[2,4,6,8,10,12,14,-1,-1,-1,-1,-1,-1,-1,-1],"split_conditions":[1E0,6.414693E1,1.0000478E3,1.2461898E1,9.3404934E-2,2.0621298E-1,1.4021543E-1,-4.078561E-2,1.31987585E-2,-1.4202009E-1,-4.544919E-2,4.058669E-2,-5.2900206E-2,8.242125E-2,-3.0406347E-2],"split_indices":[22,8,9,10,1,0,1,0,0,0,0,0,0,0,0],"split_type":[0,0,0,0,0,0,0,0,0,0,0,0,0,0,0],"sum_hessian":[2E2,9.6E1,1.04E2,7.8E1,1.8E1,3.3E1,7.1E1,3.4E1,4.4E1,5E0,1.3E1,1E1,2.3E1,4.6E1,2.5E1],"tree_param":{"num_deleted":"0","num_feature":"26","num_nodes":"15","size_leaf_vector":"1"}},{"base_weights":[-3.6429742E-3,9.7805864E-1,-5.475429E-2,-1.0400677E-1,1.4566591E0,2.81343E-1,-2.5429356E-1,-4.4139195E-2,1.555856E-2,1.6644786E-1,6.2473994E-2,-1.61916E-2,7.290997E-2,-1.973911E-3,-6.499913E-2],"categories":[],"categories_nodes":[],"categories_segments":[],"categories_sizes":[],"default_left":[0,0,0,0,0,0,0,0,0,0,0,0,0,0,0],"id":46,"left_children":[1,3,5,7,9,11,13,-1,-1,-1,-1,-1,-1,-1,-1],"loss_changes":[1.0138942E1,5.3302717E0,1.2947948E1,4.1900474E-1,1.7035675E-1,1.4408049E1,1.12175045E1,0E0,0E0,0E0,0E0,0E0,0E0,0E0,0E0],"parents":[2147483647,0,0,1,1,2,2,3,3,4,4,5,5,6,6],"right_children":[2,4,6,8,10,12,14,-1,-1,-1,-1,-1,-1,-1,-1],"split_conditions":[2.2073068E-2,1.4E1,1.2E1,6.1773214E-2,5.0326667E0,1.7887321E-1,1.4225737E3,-4.4139195E-2,1.555856E-2,1.6644786E-1,6.2473994E-2,-1.61916E-2,7.290997E-2,-1.973911E-3,-6.499913E-2],"split_indices":[14,25,25,1,4,13,9,0,0,0,0,0,0,0,0],"split_type":[0,0,0,0,0,0,0,0,0,0,0,0,0,0,0],"sum_hessian":[2E2,9E0,1.91E2,3E0,6E0,7.1E1,1.2E2,1E0,2E0,4E0,2E0,3.6E1,3.5E1,7.6E1,4.4E1],"tree_param":{"num_deleted":"0","num_feature":"26","num_nodes":"15","size_leaf_vector":"1"}},{"base_weights":[-2.3330718E-3,-5.843111E-1,7.614899E-2,-7.343403E-2,-7.148875E-1,2.5234237E-1,-2.6593247E-1,-4.3307338E-2,2.1465397E-2,-4.4765297E-2,-1.1090534E-1,-3.3977572E-2,4.2337332E-2,2.021872E-2,-5.9663188E-2],"categories":[],"categories_nodes":[],"categories_segments":[],"categories_sizes":[],"default_left":[0,0,0,0,0,0,0,0,0,0,0,0,0,0,0],"id":47,"left_children":[1,3,5,7,9,11,13,-1,-1,-1,-1,-1,-1,-1,-1],"loss_changes":[9.225136E0,1.5485067E0,1.0795609E1,7.1460754E-1,1.5048885E0,1.2093773E1,9.563852E0,0E0,0E0,0E0,0E0,0E0,0E0,0E0,0E0],"parents":[2147483647,0,0,1,1,2,2,3,3,4,4,5,5,6,6],"right_children":[2,4,6,8,10,12,14,-1,-1,-1,-1,-1,-1,-1,-1],"split_conditions":[6.054108E2,6.367354E-2,1.4741426E3,5.565338E-2,1.5E1,1E0,1.4E1,-4.3307338E-2,2.1465397E-2,-4.4765297E-2,-1.1090534E-1,-3.3977572E-2,4.2337332E-2,2.021872E-2,-5.9663188E-2],"split_indices":[9,2,9,14,25,6,25,0,0,0,0,0,0,0,0],"split_type":[0,0,0,0,0,0,0,0,0,0,0,0,0,0,0],"sum_hessian":[2E2,2.3E1,1.77E2,5E0,1.8E1,1.17E2,6E1,2E0,3E0,1.2E1,6E0,2.6E1,9.1E1,2.5E1,3.5E1],"tree_param":{"num_deleted":"0","num_feature":"26","num_nodes":"15","size_leaf_vector":"1"}},{"base_weights":[-3.137413E-3,-2.3303062E-1,1.9698387E-1,-3.8680258E-1,2.0685211E-1,1.3137482E0,1.1841197E-1,6.2360384E-2,-4.9127202E-2,6.876462E-2,-4.675809E-2,1.7385198E-2,1.4747557E-1,2.9893959E-2,-2.6811361E-2],"categories":[],"categories_nodes":[],"categories_segments":[],"categories_sizes":[],"default_left":[0,0,0,0,0,0,0,0,0,0,0,0,0,0,0],"id":48,"left_children":[1,3,5,7,9,11,13,-1,-1,-1,-1,-1,-1,-1,-1],"loss_changes":[9.293214E0,6.438325E0,9.321037E0,7.6953173E0,8.428115E0,1.0283318E0,7.1975613E0,0E0,0E0,0E0,0E0,0E0,0E0,0E0,0E0],"parents":[2147483647,0,0,1,1,2,2,3,3,4,4,5,5,6,6],"right_children":[2,4,6,8,10,12,14,-1,-1,-1,-1,-1,-1,-1,-1],"split_conditions":[2.3187605E-1,7E0,2.502329E-1,6.970005E0,1.0687365E-1,2.5592551E0,5.6027233E1,6.2360384E-2,-4.9127202E-2,6.876462E-2,-4.675809E-2,1.7385198E-2,1.4747557E-1,2.9893959E-2,-2.6811361E-2],"split_indices":[2,7,2,10,2,4,8,0,0,0,0,0,0,0,0],"split_type":[0,0,0,0,0,0,0,0,0,0,0,0,0,0,0],"sum_hessian":[2E2,9.3E1,1.07E2,6.9E1,2.4E1,6E0,1.01E2,6E0,6.3E1,1.4E1,1E1,1E0,5E0,6.9E1,3.2E1],"tree_param":{"num_deleted":"0","num_feature":"26","num_nodes":"15","size_leaf_vector":"1"}},{"base_weights":[-1.8125743E-3,-2.2626863E-1,1.8971244E-1,2.312459E-2,-5.7217526E-1,1.3718926E0,1.3161136E-1,1.9621884E-2,-4.9780995E-2,1.1751404E-1,-6.49082E-2,1.7175503E-1,5.6893732E-2,-1.4322871E-2,4.7382314E-2],"categories":[],"categories_nodes":[],"categories_segments":[],"categories_sizes":[],"default_left":[0,0,0,0,0,0,0,0,0,0,0,0,0,0,0],"id":49,"left_children":[1,3,5,7,9,11,13,-1,-1,-1,-1,-1,-1,-1,-1],"loss_changes":[8.683705E0,8.036041E0,7.3062105E0,5.0570726E0,6.0035963E0,4.1055965E-1,9.943482E0,0E0,0E0,0E0,0E0,0E0,0E0,0E0,0E0],"parents":[2147483647,0,0,1,1,2,2,3,3,4,4,5,5,6,6],"right_children":[2,4,6,8,10,12,14,-1,-1,-1,-1,-1,-1,-1,-1],"split_conditions":[1E0,6.401282E-2,2.2073068E-2,1.6001506E3,8E0,2.8784606E-1,2.7936178E-1,1.9621884E-2,-4.9780995E-2,1.1751404E-1,-6.49082E-2,1.7175503E-1,5.6893732E-2,-1.4322871E-2,4.7382314E-2],"split_indices":[23,14,14,9,25,2,0,0,0,0,0,0,0,0,0],"split_type":[0,0,0,0,0,0,0,0,0,0,0,0,0,0,0],"sum_hessian":[2E2,9.2E1,1.08E2,5.4E1,3.8E1,4E0,1.04E2,4.1E1,1.3E1,1E0,3.7E1,2E0,2E0,5.8E1,4.6E1],"tree_param":{"num_deleted":"0","num_feature":"26","num_nodes":"15","size_leaf_vector":"1"}}]},"name":"gbtree"},"learner_model_param":{"base_score":"[1.9445845E1]","boost_from_average":"1","num_class":"0","num_feature":"26","num_target":"1"},"objective":{"name":"reg:squarederror","reg_loss_param":{"scale_pos_weight":"1"}}},"version":[3,2,0]}